<?xml version="1.0"?>
<opencv_storage>
<opencv_ml_svm>
  <format>3</format>
  <svmType>C_SVC</svmType>
  <kernel>
    <type>RBF</type>
    <gamma>1.</gamma></kernel>
  <C>35.</C>
  <term_criteria><epsilon>1.1920928955078125e-07</epsilon>
    <iterations>1000</iterations></term_criteria>
  <var_count>12</var_count>
  <class_count>2</class_count>
  <class_labels type_id="opencv-matrix">
    <rows>2</rows>
    <cols>1</cols>
    <dt>i</dt>
    <data>
      -1 1</data></class_labels>
  <sv_total>463</sv_total>
  <support_vectors>
    <_>
      2.17391308e-02 6.52173907e-02 4.34782617e-02 8.69565234e-02
      6.52173907e-02 2.17391308e-02 1.08695656e-01 1.73913047e-01
      6.52173907e-02 0. 2.39130437e-01 1.08695656e-01</_>
    <_>
      5.71428575e-02 1.14285715e-01 5.71428575e-02 2.85714287e-02
      1.42857149e-01 1.14285715e-01 5.71428575e-02 1.14285715e-01
      2.85714287e-02 8.57142881e-02 8.57142881e-02 1.14285715e-01</_>
    <_>
      6.38297871e-02 4.25531901e-02 0. 1.27659574e-01 1.91489354e-01
      1.27659574e-01 8.51063803e-02 1.06382973e-01 1.06382973e-01
      6.38297871e-02 4.25531901e-02 4.25531901e-02</_>
    <_>
      9.30232555e-02 4.65116277e-02 0. 1.62790701e-01 2.09302321e-01
      1.62790701e-01 2.32558139e-02 2.32558139e-02 0. 1.16279066e-01 0.
      1.62790701e-01</_>
    <_>
      2.41379306e-01 3.44827585e-02 3.44827585e-02 1.03448272e-01
      3.44827585e-02 6.89655170e-02 0. 6.89655170e-02 0. 1.72413796e-01
      1.03448272e-01 1.37931034e-01</_>
    <_>
      1.36363640e-01 6.81818202e-02 2.27272734e-02 9.09090936e-02
      1.13636367e-01 1.59090906e-01 9.09090936e-02 6.81818202e-02
      6.81818202e-02 9.09090936e-02 0. 9.09090936e-02</_>
    <_>
      9.09090936e-02 9.09090936e-02 6.81818202e-02 2.27272734e-02
      1.36363640e-01 9.09090936e-02 4.54545468e-02 6.81818202e-02
      9.09090936e-02 9.09090936e-02 1.36363640e-01 6.81818202e-02</_>
    <_>
      4.16666679e-02 1.25000000e-01 2.77777780e-02 1.25000000e-01
      4.16666679e-02 4.16666679e-02 9.72222239e-02 8.33333358e-02
      1.66666672e-01 6.94444478e-02 1.38888896e-01 4.16666679e-02</_>
    <_>
      7.14285746e-02 7.14285746e-02 2.38095243e-02 9.52380970e-02
      1.19047619e-01 9.52380970e-02 7.14285746e-02 9.52380970e-02
      1.42857149e-01 4.76190485e-02 4.76190485e-02 1.19047619e-01</_>
    <_>
      1.45833343e-01 6.25000000e-02 0. 6.25000000e-02 4.16666679e-02
      4.16666679e-02 6.25000000e-02 8.33333358e-02 1.66666672e-01
      1.04166672e-01 1.87500000e-01 4.16666679e-02</_>
    <_>
      4.76190485e-02 9.52380970e-02 0. 1.19047619e-01 7.14285746e-02
      7.14285746e-02 9.52380970e-02 4.76190485e-02 1.42857149e-01
      1.90476194e-01 4.76190485e-02 7.14285746e-02</_>
    <_>
      5.63380271e-02 9.85915512e-02 2.81690136e-02 4.22535203e-02
      1.69014081e-01 8.45070407e-02 5.63380271e-02 1.26760557e-01
      1.12676054e-01 8.45070407e-02 8.45070407e-02 5.63380271e-02</_>
    <_>
      3.18181813e-01 6.81818202e-02 0. 4.54545468e-02 1.81818187e-01
      2.27272734e-02 4.54545468e-02 9.09090936e-02 2.27272734e-02
      1.36363640e-01 2.27272734e-02 4.54545468e-02</_>
    <_>
      9.63855386e-02 1.08433731e-01 2.40963846e-02 8.43373463e-02
      1.20481923e-01 9.63855386e-02 8.43373463e-02 8.43373463e-02
      1.20481923e-01 7.22891539e-02 4.81927693e-02 6.02409616e-02</_>
    <_>
      8.53658468e-02 7.31707290e-02 1.09756097e-01 4.87804860e-02
      3.65853645e-02 0. 7.31707290e-02 1.09756097e-01 1.09756097e-01
      1.09756097e-01 1.21951215e-01 1.21951215e-01</_>
    <_>
      6.25000000e-02 8.33333358e-02 0. 1.87500000e-01 1.45833343e-01
      8.33333358e-02 4.16666679e-02 6.25000000e-02 8.33333358e-02
      6.25000000e-02 1.04166672e-01 8.33333358e-02</_>
    <_>
      3.77358496e-02 1.50943398e-01 1.88679248e-02 9.43396240e-02
      9.43396240e-02 1.13207549e-01 1.88679248e-02 9.43396240e-02
      1.32075474e-01 1.50943398e-01 7.54716992e-02 1.88679248e-02</_>
    <_>
      6.89655170e-02 8.62068981e-02 0. 3.44827585e-02 1.37931034e-01
      6.89655170e-02 8.62068981e-02 5.17241359e-02 3.44827585e-02
      2.58620679e-01 8.62068981e-02 8.62068981e-02</_>
    <_>
      1.07692309e-01 6.15384616e-02 4.61538471e-02 9.23076943e-02
      1.38461545e-01 7.69230798e-02 6.15384616e-02 3.07692308e-02
      4.61538471e-02 3.07692319e-01 1.53846154e-02 1.53846154e-02</_>
    <_>
      5.71428575e-02 0. 5.71428575e-02 8.57142881e-02 3.14285725e-01
      1.14285715e-01 2.85714287e-02 0. 5.71428575e-02 1.71428576e-01
      2.85714287e-02 8.57142881e-02</_>
    <_>
      1.06382973e-01 4.25531901e-02 2.12765951e-02 1.06382973e-01
      1.70212761e-01 2.34042540e-01 4.25531901e-02 4.25531901e-02
      4.25531901e-02 4.25531901e-02 6.38297871e-02 8.51063803e-02</_>
    <_>
      1.28571436e-01 1.14285715e-01 2.85714287e-02 1.28571436e-01
      1.28571436e-01 4.28571440e-02 7.14285746e-02 1.00000001e-01
      2.85714287e-02 1.57142863e-01 5.71428575e-02 1.42857144e-02</_>
    <_>
      7.31707290e-02 7.31707290e-02 9.75609720e-02 2.43902430e-02
      9.75609720e-02 4.87804860e-02 1.21951215e-01 9.75609720e-02
      1.46341458e-01 1.21951215e-01 9.75609720e-02 0.</_>
    <_>
      7.69230798e-02 1.53846160e-01 0. 9.23076943e-02 6.15384616e-02
      7.69230798e-02 3.07692308e-02 3.07692308e-02 1.38461545e-01
      1.38461545e-01 1.07692309e-01 9.23076943e-02</_>
    <_>
      8.69565234e-02 8.69565234e-02 6.52173907e-02 4.34782617e-02
      1.30434781e-01 1.95652172e-01 2.17391308e-02 6.52173907e-02
      1.08695656e-01 1.08695656e-01 4.34782617e-02 4.34782617e-02</_>
    <_>
      2.14285731e-01 1.07142866e-01 3.57142873e-02 3.57142873e-02
      1.42857149e-01 1.78571433e-01 3.57142873e-02 0. 3.57142873e-02
      1.78571433e-01 3.57142873e-02 0.</_>
    <_>
      6.89655170e-02 1.03448272e-01 3.44827585e-02 1.03448272e-01
      5.17241359e-02 1.37931034e-01 1.37931034e-01 5.17241359e-02
      3.44827585e-02 1.55172408e-01 6.89655170e-02 5.17241359e-02</_>
    <_>
      3.22580636e-02 8.06451589e-02 9.67741907e-02 1.12903222e-01
      6.45161271e-02 1.61290318e-02 9.67741907e-02 8.06451589e-02
      1.45161286e-01 6.45161271e-02 9.67741907e-02 1.12903222e-01</_>
    <_>
      4.54545468e-02 6.81818202e-02 2.27272734e-02 9.09090936e-02
      2.04545468e-01 9.09090936e-02 1.13636367e-01 4.54545468e-02
      4.54545468e-02 1.36363640e-01 6.81818202e-02 6.81818202e-02</_>
    <_>
      9.43396240e-02 1.32075474e-01 1.88679248e-02 7.54716992e-02
      1.13207549e-01 7.54716992e-02 5.66037744e-02 7.54716992e-02
      5.66037744e-02 9.43396240e-02 1.50943398e-01 5.66037744e-02</_>
    <_>
      8.77192989e-02 1.75438598e-02 3.50877196e-02 1.40350878e-01
      1.75438598e-01 1.75438598e-02 7.01754391e-02 7.01754391e-02
      5.26315793e-02 1.57894731e-01 1.75438598e-02 1.57894731e-01</_>
    <_>
      5.63380271e-02 1.26760557e-01 7.04225302e-02 5.63380271e-02
      1.26760557e-01 4.22535203e-02 7.04225302e-02 7.04225302e-02
      1.40845060e-01 2.81690136e-02 1.54929578e-01 5.63380271e-02</_>
    <_>
      1.96078438e-02 2.15686277e-01 1.96078438e-02 1.37254909e-01
      1.37254909e-01 0. 3.92156877e-02 9.80392173e-02 9.80392173e-02
      9.80392173e-02 1.17647067e-01 1.96078438e-02</_>
    <_>
      8.47457647e-02 1.69491526e-02 0. 1.35593221e-01 8.47457647e-02
      1.01694912e-01 1.18644066e-01 1.35593221e-01 8.47457647e-02
      8.47457647e-02 6.77966103e-02 8.47457647e-02</_>
    <_>
      1.04651161e-01 1.51162788e-01 3.48837227e-02 5.81395328e-02
      6.97674453e-02 5.81395328e-02 4.65116277e-02 9.30232555e-02
      8.13953504e-02 1.62790701e-01 1.16279066e-01 2.32558139e-02</_>
    <_>
      1.05263159e-01 3.50877196e-02 3.50877196e-02 3.50877196e-02
      1.57894731e-01 1.40350878e-01 1.05263159e-01 8.77192989e-02
      1.40350878e-01 7.01754391e-02 3.50877196e-02 5.26315793e-02</_>
    <_>
      1.04477607e-01 1.19402982e-01 4.47761193e-02 1.34328350e-01
      4.47761193e-02 5.97014911e-02 8.95522386e-02 5.97014911e-02
      7.46268630e-02 7.46268630e-02 8.95522386e-02 1.04477607e-01</_>
    <_>
      1.51898742e-01 3.79746854e-02 5.06329127e-02 1.01265825e-01
      1.39240503e-01 1.13924056e-01 5.06329127e-02 0. 6.32911399e-02
      2.02531651e-01 2.53164563e-02 6.32911399e-02</_>
    <_>
      6.89655170e-02 8.62068981e-02 1.72413792e-02 8.62068981e-02
      1.72413796e-01 8.62068981e-02 1.03448272e-01 6.89655170e-02
      5.17241359e-02 1.72413792e-02 1.03448272e-01 1.37931034e-01</_>
    <_>
      4.16666679e-02 1.04166672e-01 6.25000000e-02 8.33333358e-02
      1.45833343e-01 1.04166672e-01 1.04166672e-01 6.25000000e-02
      6.25000000e-02 6.25000000e-02 1.25000000e-01 4.16666679e-02</_>
    <_>
      1.17647067e-01 3.92156877e-02 1.96078438e-02 1.96078438e-02
      9.80392173e-02 1.56862751e-01 1.56862751e-01 9.80392173e-02
      3.92156877e-02 1.37254909e-01 9.80392173e-02 1.96078438e-02</_>
    <_>
      5.40540554e-02 4.05405425e-02 2.70270277e-02 9.45945978e-02
      1.35135144e-01 2.02702701e-01 5.40540554e-02 2.70270277e-02
      8.10810849e-02 1.08108111e-01 9.45945978e-02 8.10810849e-02</_>
    <_>
      1.11111112e-01 9.25925970e-02 3.70370373e-02 1.29629627e-01
      1.66666672e-01 1.11111112e-01 5.55555560e-02 1.85185187e-02
      1.11111112e-01 1.11111112e-01 5.55555560e-02 0.</_>
    <_>
      6.45161271e-02 1.45161286e-01 3.22580636e-02 1.61290318e-02
      4.83870953e-02 4.83870953e-02 1.12903222e-01 6.45161271e-02
      1.77419350e-01 1.29032254e-01 1.12903222e-01 4.83870953e-02</_>
    <_>
      9.75609720e-02 7.31707290e-02 2.43902430e-02 7.31707290e-02
      9.75609720e-02 1.46341458e-01 1.21951215e-01 9.75609720e-02
      2.43902430e-02 2.43902430e-02 7.31707290e-02 1.46341458e-01</_>
    <_>
      6.97674453e-02 6.97674453e-02 6.97674453e-02 6.97674453e-02
      9.30232555e-02 1.39534891e-01 1.16279066e-01 6.97674453e-02
      4.65116277e-02 1.39534891e-01 1.16279066e-01 0.</_>
    <_>
      3.84615399e-02 7.69230798e-02 1.92307699e-02 7.69230798e-02
      7.69230798e-02 1.34615391e-01 1.53846160e-01 1.53846160e-01
      1.92307699e-02 1.15384623e-01 7.69230798e-02 5.76923117e-02</_>
    <_>
      1.25000000e-01 1.42857149e-01 0. 1.07142866e-01 1.25000000e-01
      1.07142866e-01 7.14285746e-02 7.14285746e-02 7.14285746e-02
      1.07142866e-01 7.14285746e-02 0.</_>
    <_>
      1.47058824e-02 1.17647059e-01 7.35294148e-02 4.41176482e-02
      5.88235296e-02 8.82352963e-02 8.82352963e-02 1.17647059e-01
      1.47058830e-01 7.35294148e-02 1.47058830e-01 2.94117648e-02</_>
    <_>
      4.76190485e-02 4.76190485e-02 7.14285746e-02 2.61904776e-01
      1.42857149e-01 1.42857149e-01 2.38095243e-02 4.76190485e-02 0.
      4.76190485e-02 1.19047619e-01 4.76190485e-02</_>
    <_>
      2.56410260e-02 2.56410260e-02 0. 0. 1.28205135e-01 1.79487184e-01
      1.79487184e-01 1.53846160e-01 1.02564104e-01 0. 1.02564104e-01
      1.02564104e-01</_>
    <_>
      6.77966103e-02 3.38983051e-02 0. 1.52542368e-01 1.52542368e-01
      8.47457647e-02 8.47457647e-02 1.69491529e-01 5.08474559e-02
      1.18644066e-01 1.69491526e-02 6.77966103e-02</_>
    <_>
      2.56410271e-01 5.12820520e-02 1.28205130e-02 1.79487184e-01
      1.28205130e-02 3.84615399e-02 2.56410260e-02 1.28205130e-02
      6.41025677e-02 2.30769232e-01 3.84615399e-02 7.69230798e-02</_>
    <_>
      1.92982465e-01 1.05263159e-01 0. 7.01754391e-02 1.05263159e-01
      1.75438598e-02 3.50877196e-02 7.01754391e-02 7.01754391e-02
      3.50877196e-02 1.05263159e-01 1.92982465e-01</_>
    <_>
      9.80392173e-02 9.80392173e-02 0. 1.96078438e-02 2.15686277e-01
      7.84313753e-02 1.96078438e-02 1.37254909e-01 9.80392173e-02
      1.96078435e-01 1.96078438e-02 1.96078438e-02</_>
    <_>
      8.33333358e-02 9.72222239e-02 6.94444478e-02 2.77777780e-02
      1.52777776e-01 2.77777780e-02 8.33333358e-02 1.25000000e-01
      4.16666679e-02 1.52777776e-01 1.25000000e-01 1.38888890e-02</_>
    <_>
      2.04081628e-02 6.12244904e-02 2.04081628e-02 1.02040812e-01
      2.04081625e-01 1.02040812e-01 4.08163257e-02 1.02040812e-01
      6.12244904e-02 8.16326514e-02 1.42857134e-01 6.12244904e-02</_>
    <_>
      4.25531901e-02 6.38297871e-02 0. 6.38297871e-02 6.38297871e-02
      8.51063803e-02 1.27659574e-01 1.70212761e-01 1.48936167e-01
      1.48936167e-01 6.38297871e-02 2.12765951e-02</_>
    <_>
      1.59420297e-01 1.01449281e-01 2.89855078e-02 0. 5.79710156e-02
      5.79710156e-02 1.15942031e-01 1.44927531e-01 7.24637657e-02
      1.30434781e-01 1.30434781e-01 0.</_>
    <_>
      2.85714287e-02 5.71428575e-02 2.85714287e-02 0. 0. 1.42857149e-01
      0. 0. 2.00000003e-01 1.71428576e-01 1.71428576e-01 2.00000003e-01</_>
    <_>
      8.82352963e-02 1.02941178e-01 1.47058824e-02 4.41176482e-02
      1.47058824e-02 5.88235296e-02 5.88235296e-02 7.35294148e-02
      2.20588237e-01 1.32352948e-01 1.76470593e-01 1.47058824e-02</_>
    <_>
      1.22448981e-01 1.22448981e-01 2.04081628e-02 8.16326514e-02
      6.12244904e-02 6.12244904e-02 4.08163257e-02 1.22448981e-01
      1.22448981e-01 8.16326514e-02 1.22448981e-01 4.08163257e-02</_>
    <_>
      1.40625000e-01 1.87500000e-01 4.68750000e-02 3.12500000e-02
      4.68750000e-02 7.81250000e-02 3.12500000e-02 4.68750000e-02
      1.40625000e-01 1.40625000e-01 9.37500000e-02 1.56250000e-02</_>
    <_>
      8.33333358e-02 1.66666672e-01 0. 6.25000000e-02 1.45833343e-01
      8.33333358e-02 2.08333340e-02 6.25000000e-02 4.16666679e-02
      1.66666672e-01 6.25000000e-02 1.04166672e-01</_>
    <_>
      3.57142873e-02 8.92857164e-02 7.14285746e-02 7.14285746e-02
      1.78571433e-01 5.35714328e-02 1.07142866e-01 8.92857164e-02
      3.57142873e-02 1.07142866e-01 1.07142866e-01 5.35714328e-02</_>
    <_>
      6.66666701e-02 1.11111112e-01 1.11111112e-01 2.22222228e-02
      2.22222228e-02 1.11111112e-01 1.11111112e-01 1.11111112e-01
      1.33333340e-01 8.88888910e-02 1.11111112e-01 0.</_>
    <_>
      2.29166672e-01 6.25000000e-02 4.16666679e-02 2.08333340e-02
      6.25000000e-02 1.25000000e-01 6.25000000e-02 4.16666679e-02
      2.08333340e-02 1.87500000e-01 2.08333340e-02 1.25000000e-01</_>
    <_>
      3.57142873e-02 7.14285746e-02 1.07142866e-01 3.57142873e-02
      3.57142873e-02 3.57142873e-02 1.78571433e-01 1.42857149e-01
      1.07142866e-01 3.57142873e-02 1.78571433e-01 3.57142873e-02</_>
    <_>
      6.15384616e-02 2.00000003e-01 1.53846154e-02 6.15384616e-02
      6.15384616e-02 1.53846154e-02 1.69230774e-01 9.23076943e-02
      7.69230798e-02 6.15384616e-02 1.53846160e-01 3.07692308e-02</_>
    <_>
      5.12820520e-02 5.12820520e-02 0. 5.12820520e-02 1.28205135e-01
      1.79487184e-01 5.12820520e-02 1.02564104e-01 1.53846160e-01
      1.79487184e-01 2.56410260e-02 2.56410260e-02</_>
    <_>
      1.18644066e-01 1.01694912e-01 1.69491526e-02 1.01694912e-01
      1.18644066e-01 5.08474559e-02 3.38983051e-02 6.77966103e-02
      1.01694912e-01 1.01694912e-01 1.18644066e-01 6.77966103e-02</_>
    <_>
      8.19672048e-02 9.83606502e-02 1.63934417e-02 8.19672048e-02
      2.95081943e-01 1.63934417e-02 6.55737668e-02 9.83606502e-02
      4.91803251e-02 1.63934417e-02 8.19672048e-02 9.83606502e-02</_>
    <_>
      7.69230798e-02 1.34615391e-01 5.76923117e-02 5.76923117e-02
      1.53846160e-01 1.92307699e-02 1.92307699e-02 1.34615391e-01
      9.61538479e-02 3.84615399e-02 1.15384623e-01 9.61538479e-02</_>
    <_>
      6.52173907e-02 8.69565234e-02 0. 2.17391308e-02 1.08695656e-01
      6.52173907e-02 1.52173921e-01 1.30434781e-01 1.52173921e-01
      1.52173921e-01 4.34782617e-02 2.17391308e-02</_>
    <_>
      1.55555561e-01 2.22222228e-02 4.44444455e-02 0. 2.88888901e-01
      1.33333340e-01 6.66666701e-02 2.22222228e-02 6.66666701e-02
      8.88888910e-02 8.88888910e-02 2.22222228e-02</_>
    <_>
      4.34782617e-02 2.17391308e-02 4.34782617e-02 1.52173921e-01
      1.52173921e-01 6.52173907e-02 6.52173907e-02 6.52173907e-02
      1.30434781e-01 8.69565234e-02 6.52173907e-02 1.08695656e-01</_>
    <_>
      9.09090862e-02 7.27272704e-02 1.81818176e-02 2.18181819e-01
      9.09090862e-02 1.81818176e-02 3.63636352e-02 5.45454547e-02
      1.81818176e-02 1.45454541e-01 7.27272704e-02 1.63636357e-01</_>
    <_>
      9.80392173e-02 1.17647067e-01 1.96078438e-02 9.80392173e-02
      1.96078438e-02 5.88235334e-02 3.92156877e-02 5.88235334e-02
      9.80392173e-02 7.84313753e-02 2.35294133e-01 7.84313753e-02</_>
    <_>
      2.18181819e-01 1.81818176e-02 3.63636352e-02 9.09090862e-02
      1.09090909e-01 1.99999988e-01 3.63636352e-02 1.09090909e-01
      1.81818176e-02 5.45454547e-02 0. 1.09090909e-01</_>
    <_>
      1.83333337e-01 8.33333358e-02 5.00000045e-02 3.33333351e-02
      1.00000009e-01 1.66666675e-02 1.16666675e-01 3.33333351e-02
      6.66666701e-02 1.16666675e-01 1.50000006e-01 5.00000045e-02</_>
    <_>
      2.17391308e-02 1.08695656e-01 2.17391308e-02 1.08695656e-01
      1.73913047e-01 1.52173921e-01 2.17391308e-02 4.34782617e-02
      6.52173907e-02 6.52173907e-02 1.52173921e-01 6.52173907e-02</_>
    <_>
      7.93650821e-02 1.26984134e-01 0. 4.76190522e-02 1.26984134e-01
      3.17460336e-02 3.17460336e-02 7.93650821e-02 1.74603179e-01
      1.74603179e-01 7.93650821e-02 4.76190522e-02</_>
    <_>
      3.57142873e-02 8.92857164e-02 3.57142873e-02 1.07142866e-01
      1.78571433e-01 1.42857149e-01 0. 8.92857164e-02 7.14285746e-02
      5.35714328e-02 1.60714298e-01 3.57142873e-02</_>
    <_>
      0. 8.57142881e-02 2.85714287e-02 8.57142881e-02 5.71428575e-02
      1.14285715e-01 2.85714287e-02 5.71428575e-02 1.14285715e-01
      8.57142881e-02 1.14285715e-01 2.28571430e-01</_>
    <_>
      1.38888896e-01 5.55555560e-02 0. 1.66666672e-01 2.77777780e-02
      8.33333358e-02 5.55555560e-02 1.11111112e-01 5.55555560e-02
      1.38888896e-01 2.77777780e-02 1.38888896e-01</_>
    <_>
      1.32075474e-01 9.43396240e-02 5.66037744e-02 1.88679248e-02
      1.88679248e-02 7.54716992e-02 9.43396240e-02 5.66037744e-02
      1.32075474e-01 9.43396240e-02 1.88679248e-01 3.77358496e-02</_>
    <_>
      3.84615399e-02 9.61538479e-02 0. 7.69230798e-02 2.50000000e-01
      1.92307699e-02 5.76923117e-02 7.69230798e-02 1.15384623e-01
      7.69230798e-02 1.15384623e-01 7.69230798e-02</_>
    <_>
      3.92156877e-02 1.17647067e-01 3.92156877e-02 1.17647067e-01
      5.88235334e-02 1.96078438e-02 1.96078435e-01 1.17647067e-01
      9.80392173e-02 0. 1.56862751e-01 3.92156877e-02</_>
    <_>
      1.47058824e-02 1.32352948e-01 2.94117648e-02 1.32352948e-01
      4.41176482e-02 1.47058824e-02 1.17647059e-01 1.02941178e-01
      1.32352948e-01 7.35294148e-02 1.17647059e-01 8.82352963e-02</_>
    <_>
      8.19672048e-02 1.14754096e-01 4.91803251e-02 9.83606502e-02
      8.19672048e-02 4.91803251e-02 1.63934417e-02 8.19672048e-02
      9.83606502e-02 8.19672048e-02 1.47540972e-01 9.83606502e-02</_>
    <_>
      3.03030312e-02 6.06060624e-02 7.57575780e-02 4.54545468e-02
      1.36363640e-01 1.66666672e-01 3.03030312e-02 7.57575780e-02
      1.06060609e-01 3.03030312e-02 1.36363640e-01 1.06060609e-01</_>
    <_>
      1.64383560e-01 1.50684923e-01 0. 1.09589040e-01 1.36986300e-02 0.
      8.21917802e-02 4.10958901e-02 9.58904102e-02 1.23287670e-01
      1.50684923e-01 6.84931502e-02</_>
    <_>
      1.81818176e-02 1.09090909e-01 1.81818176e-02 9.09090862e-02
      5.45454547e-02 1.27272725e-01 1.09090909e-01 1.09090909e-01
      1.45454541e-01 9.09090862e-02 9.09090862e-02 3.63636352e-02</_>
    <_>
      8.16326514e-02 1.02040812e-01 2.04081628e-02 2.04081628e-02
      6.12244904e-02 2.04081625e-01 8.16326514e-02 8.16326514e-02
      1.02040812e-01 1.42857134e-01 1.02040812e-01 0.</_>
    <_>
      3.24324340e-01 2.70270277e-02 0. 8.10810849e-02 0. 5.40540554e-02
      5.40540554e-02 2.70270277e-02 5.40540554e-02 2.70270288e-01
      8.10810849e-02 2.70270277e-02</_>
    <_>
      1.04477607e-01 1.19402982e-01 4.47761193e-02 1.49253726e-01
      2.98507456e-02 1.49253728e-02 8.95522386e-02 4.47761193e-02
      1.04477607e-01 1.64179102e-01 1.19402982e-01 1.49253728e-02</_>
    <_>
      1.75438598e-02 8.77192989e-02 1.75438598e-02 8.77192989e-02
      8.77192989e-02 1.75438598e-01 1.22807018e-01 8.77192989e-02
      1.57894731e-01 5.26315793e-02 3.50877196e-02 7.01754391e-02</_>
    <_>
      3.99999991e-02 9.99999940e-02 9.99999940e-02 1.99999996e-02
      1.19999997e-01 1.79999992e-01 1.19999997e-01 1.19999997e-01
      7.99999982e-02 0. 5.99999987e-02 5.99999987e-02</_>
    <_>
      7.99999982e-02 9.99999940e-02 5.99999987e-02 5.99999987e-02
      3.99999991e-02 1.19999997e-01 5.99999987e-02 5.99999987e-02
      1.40000001e-01 1.59999996e-01 3.99999991e-02 7.99999982e-02</_>
    <_>
      1.15942031e-01 8.69565234e-02 4.34782617e-02 1.30434781e-01
      2.89855078e-02 1.44927539e-02 1.44927539e-02 4.34782617e-02
      1.01449281e-01 2.60869563e-01 1.44927531e-01 1.44927539e-02</_>
    <_>
      1.52542368e-01 1.35593221e-01 3.38983051e-02 0. 6.77966103e-02
      1.01694912e-01 1.01694912e-01 5.08474559e-02 5.08474559e-02
      1.18644066e-01 1.35593221e-01 5.08474559e-02</_>
    <_>
      0. 1.26582280e-01 3.79746854e-02 6.32911399e-02 8.86075944e-02
      1.26582280e-01 1.13924056e-01 7.59493709e-02 1.26582280e-01
      5.06329127e-02 1.39240503e-01 5.06329127e-02</_>
    <_>
      8.18181783e-02 1.36363626e-01 2.72727273e-02 9.99999940e-02
      2.72727273e-02 0. 9.09090862e-02 8.18181783e-02 9.99999940e-02
      1.63636357e-01 1.63636357e-01 2.72727273e-02</_>
    <_>
      1.21212125e-01 9.09090936e-02 1.51515156e-02 4.54545468e-02
      7.57575780e-02 1.51515156e-02 1.06060609e-01 6.06060624e-02
      1.21212125e-01 1.36363640e-01 1.21212125e-01 9.09090936e-02</_>
    <_>
      1.86046511e-01 6.97674453e-02 0. 1.39534891e-01 6.97674453e-02
      1.16279066e-01 2.32558139e-02 6.97674453e-02 2.32558139e-02
      2.09302321e-01 0. 9.30232555e-02</_>
    <_>
      7.89473653e-02 2.36842111e-01 2.63157897e-02 7.89473653e-02
      2.63157897e-02 7.89473653e-02 2.63157897e-02 1.31578952e-01
      7.89473653e-02 5.26315793e-02 5.26315793e-02 1.31578952e-01</_>
    <_>
      2.32558139e-02 1.62790701e-01 4.65116277e-02 9.30232555e-02
      1.62790701e-01 9.30232555e-02 1.16279066e-01 4.65116277e-02
      1.62790701e-01 6.97674453e-02 0. 2.32558139e-02</_>
    <_>
      0. 1.16279066e-01 0. 6.97674453e-02 1.39534891e-01 1.39534891e-01
      1.62790701e-01 1.86046511e-01 9.30232555e-02 2.32558139e-02
      4.65116277e-02 2.32558139e-02</_>
    <_>
      6.25000000e-02 8.33333358e-02 8.33333358e-02 4.16666679e-02
      8.33333358e-02 1.04166672e-01 2.08333340e-02 4.16666679e-02
      1.66666672e-01 1.04166672e-01 1.66666672e-01 4.16666679e-02</_>
    <_>
      1.45833343e-01 1.25000000e-01 4.16666679e-02 4.16666679e-02
      8.33333358e-02 1.25000000e-01 2.08333340e-02 2.08333340e-02
      1.25000000e-01 8.33333358e-02 2.08333340e-02 1.66666672e-01</_>
    <_>
      5.26315793e-02 1.22807018e-01 8.77192989e-02 1.05263159e-01
      1.05263159e-01 1.05263159e-01 7.01754391e-02 7.01754391e-02
      1.05263159e-01 1.75438598e-02 1.22807018e-01 3.50877196e-02</_>
    <_>
      9.72222239e-02 8.33333358e-02 4.16666679e-02 5.55555560e-02
      1.25000000e-01 1.38888890e-02 8.33333358e-02 1.25000000e-01
      9.72222239e-02 1.25000000e-01 1.38888896e-01 1.38888890e-02</_>
    <_>
      6.77966103e-02 1.18644066e-01 6.77966103e-02 6.77966103e-02
      3.38983051e-02 5.08474559e-02 8.47457647e-02 6.77966103e-02
      1.69491529e-01 1.01694912e-01 1.18644066e-01 5.08474559e-02</_>
    <_>
      9.09090862e-02 5.45454547e-02 5.45454547e-02 3.63636352e-02
      3.63636352e-02 5.45454547e-02 1.09090909e-01 9.09090862e-02
      1.09090909e-01 3.27272713e-01 3.63636352e-02 0.</_>
    <_>
      5.17241359e-02 8.62068981e-02 1.72413792e-02 0. 1.03448272e-01
      1.37931034e-01 3.44827585e-02 5.17241359e-02 1.20689653e-01
      1.89655170e-01 1.37931034e-01 6.89655170e-02</_>
    <_>
      8.33333358e-02 1.25000000e-01 4.16666679e-02 6.25000000e-02
      8.33333358e-02 1.04166672e-01 6.25000000e-02 4.16666679e-02
      1.04166672e-01 1.25000000e-01 1.04166672e-01 6.25000000e-02</_>
    <_>
      3.33333351e-02 1.66666672e-01 1.66666675e-02 8.33333358e-02
      1.33333340e-01 1.16666675e-01 8.33333358e-02 1.00000009e-01
      1.16666675e-01 6.66666701e-02 5.00000045e-02 3.33333351e-02</_>
    <_>
      1.22448981e-01 6.12244904e-02 2.04081628e-02 2.04081625e-01
      1.83673471e-01 4.08163257e-02 6.12244904e-02 1.02040812e-01
      4.08163257e-02 4.08163257e-02 4.08163257e-02 8.16326514e-02</_>
    <_>
      0. 3.70370373e-02 3.70370373e-02 7.40740746e-02 7.40740746e-02
      1.85185194e-01 3.70370373e-02 1.48148149e-01 7.40740746e-02
      1.48148149e-01 1.48148149e-01 3.70370373e-02</_>
    <_>
      8.62068981e-02 6.89655170e-02 3.44827585e-02 2.58620679e-01
      5.17241359e-02 5.17241359e-02 5.17241359e-02 3.44827585e-02
      8.62068981e-02 8.62068981e-02 5.17241359e-02 1.37931034e-01</_>
    <_>
      1.42857134e-01 6.12244904e-02 4.08163257e-02 0. 1.83673471e-01
      1.02040812e-01 4.08163257e-02 4.08163257e-02 1.02040812e-01
      1.02040812e-01 1.42857134e-01 4.08163257e-02</_>
    <_>
      6.97674453e-02 6.97674453e-02 0. 1.39534891e-01 9.30232555e-02
      1.39534891e-01 2.32558139e-02 6.97674453e-02 6.97674453e-02
      6.97674453e-02 9.30232555e-02 1.62790701e-01</_>
    <_>
      1.14285715e-01 1.14285715e-01 0. 0. 1.42857149e-01 8.57142881e-02
      2.85714287e-02 1.14285715e-01 1.42857149e-01 1.42857149e-01
      8.57142881e-02 2.85714287e-02</_>
    <_>
      2.12765951e-02 1.27659574e-01 2.12765951e-02 6.38297871e-02
      2.34042540e-01 8.51063803e-02 4.25531901e-02 8.51063803e-02
      1.06382973e-01 2.12765951e-02 8.51063803e-02 1.06382973e-01</_>
    <_>
      8.33333358e-02 6.94444478e-02 1.38888890e-02 1.38888896e-01
      1.80555552e-01 1.25000000e-01 2.77777780e-02 4.16666679e-02
      9.72222239e-02 6.94444478e-02 2.77777780e-02 1.25000000e-01</_>
    <_>
      8.33333358e-02 4.16666679e-02 4.16666679e-02 4.16666679e-02
      1.25000000e-01 1.66666672e-01 1.04166672e-01 4.16666679e-02
      4.16666679e-02 8.33333358e-02 8.33333358e-02 1.45833343e-01</_>
    <_>
      0. 2.70270277e-02 8.10810849e-02 1.35135144e-01 1.08108111e-01
      8.10810849e-02 2.70270277e-02 8.10810849e-02 1.08108111e-01
      1.62162170e-01 2.70270277e-02 1.62162170e-01</_>
    <_>
      1.06060609e-01 1.06060609e-01 3.03030312e-02 1.21212125e-01
      9.09090936e-02 4.54545468e-02 0. 1.51515156e-02 1.36363640e-01
      9.09090936e-02 1.51515156e-01 1.06060609e-01</_>
    <_>
      2.50000000e-01 2.27272734e-02 6.81818202e-02 2.27272734e-02
      4.54545468e-02 1.59090906e-01 9.09090936e-02 0. 4.54545468e-02
      1.81818187e-01 2.27272734e-02 9.09090936e-02</_>
    <_>
      1.03448272e-01 5.17241359e-02 0. 1.03448272e-01 5.17241359e-02 0.
      6.89655170e-02 6.89655170e-02 1.89655170e-01 1.72413796e-01
      1.55172408e-01 3.44827585e-02</_>
    <_>
      6.34920672e-02 4.76190522e-02 4.76190522e-02 1.42857149e-01
      4.76190522e-02 3.17460336e-02 4.76190522e-02 7.93650821e-02
      4.76190522e-02 1.42857149e-01 2.06349224e-01 9.52381045e-02</_>
    <_>
      6.38297871e-02 8.51063803e-02 0. 1.06382973e-01 6.38297871e-02
      1.48936167e-01 1.27659574e-01 1.06382973e-01 6.38297871e-02
      1.27659574e-01 6.38297871e-02 4.25531901e-02</_>
    <_>
      1.49253728e-02 1.79104477e-01 1.49253728e-02 7.46268630e-02
      5.97014911e-02 4.47761193e-02 1.04477607e-01 1.19402982e-01
      1.34328350e-01 4.47761193e-02 1.04477607e-01 1.04477607e-01</_>
    <_>
      1.78571437e-02 1.42857149e-01 3.57142873e-02 8.92857164e-02
      1.60714298e-01 5.35714328e-02 7.14285746e-02 1.78571437e-02
      1.25000000e-01 5.35714328e-02 7.14285746e-02 1.60714298e-01</_>
    <_>
      2.50000000e-01 5.55555560e-02 0. 1.11111112e-01 2.77777780e-02 0.
      1.94444448e-01 1.11111112e-01 0. 8.33333358e-02 8.33333358e-02
      8.33333358e-02</_>
    <_>
      8.33333358e-02 1.00000009e-01 3.33333351e-02 8.33333358e-02
      6.66666701e-02 1.50000006e-01 1.16666675e-01 1.33333340e-01
      1.66666675e-02 8.33333358e-02 8.33333358e-02 5.00000045e-02</_>
    <_>
      0. 6.12244904e-02 2.04081628e-02 1.22448981e-01 1.83673471e-01
      1.02040812e-01 1.22448981e-01 8.16326514e-02 1.02040812e-01 0.
      1.02040812e-01 1.02040812e-01</_>
    <_>
      9.52380970e-02 4.76190485e-02 0. 9.52380970e-02 9.52380970e-02
      9.52380970e-02 1.90476194e-01 1.90476194e-01 0. 1.42857149e-01
      4.76190485e-02 0.</_>
    <_>
      1.69491529e-01 6.77966103e-02 1.69491526e-02 5.08474559e-02
      8.47457647e-02 6.77966103e-02 5.08474559e-02 6.77966103e-02
      1.69491526e-02 1.86440676e-01 1.01694912e-01 1.18644066e-01</_>
    <_>
      7.14285746e-02 1.07142866e-01 5.35714328e-02 3.57142873e-02
      1.78571437e-02 1.78571437e-02 7.14285746e-02 7.14285746e-02
      1.42857149e-01 1.60714298e-01 1.42857149e-01 1.07142866e-01</_>
    <_>
      8.06451589e-02 8.06451589e-02 4.83870953e-02 9.67741907e-02
      3.22580636e-02 3.22580636e-02 1.12903222e-01 1.12903222e-01
      8.06451589e-02 1.29032254e-01 1.61290318e-01 3.22580636e-02</_>
    <_>
      1.07692309e-01 1.07692309e-01 3.07692308e-02 9.23076943e-02
      4.61538471e-02 4.61538471e-02 1.38461545e-01 4.61538471e-02
      1.07692309e-01 7.69230798e-02 1.38461545e-01 6.15384616e-02</_>
    <_>
      1.07142866e-01 5.35714328e-02 1.78571437e-02 1.78571433e-01
      1.96428582e-01 1.78571437e-02 7.14285746e-02 3.57142873e-02
      3.57142873e-02 8.92857164e-02 5.35714328e-02 1.42857149e-01</_>
    <_>
      1.11111112e-01 1.11111112e-01 0. 4.44444455e-02 8.88888910e-02
      6.66666701e-02 1.33333340e-01 2.22222228e-02 1.55555561e-01
      8.88888910e-02 2.22222228e-02 1.55555561e-01</_>
    <_>
      2.56410260e-02 7.69230798e-02 3.84615399e-02 8.97435918e-02
      2.56410260e-02 1.28205130e-02 6.41025677e-02 7.69230798e-02
      1.53846160e-01 1.02564104e-01 1.92307696e-01 1.41025648e-01</_>
    <_>
      1.07692309e-01 1.38461545e-01 4.61538471e-02 1.07692309e-01
      6.15384616e-02 3.07692308e-02 0. 3.07692308e-02 1.84615389e-01
      7.69230798e-02 1.38461545e-01 7.69230798e-02</_>
    <_>
      1.62790701e-01 6.97674453e-02 2.32558139e-02 2.32558139e-02
      2.09302321e-01 2.09302321e-01 6.97674453e-02 6.97674453e-02 0.
      4.65116277e-02 4.65116277e-02 6.97674453e-02</_>
    <_>
      1.70731694e-01 9.75609720e-02 2.43902430e-02 1.21951215e-01
      2.43902430e-02 0. 7.31707290e-02 7.31707290e-02 1.21951215e-01
      9.75609720e-02 9.75609720e-02 9.75609720e-02</_>
    <_>
      5.66037744e-02 3.77358496e-02 5.66037744e-02 1.88679248e-02
      9.43396240e-02 3.77358496e-02 1.32075474e-01 7.54716992e-02
      1.88679248e-01 1.32075474e-01 1.13207549e-01 5.66037744e-02</_>
    <_>
      9.67741907e-02 3.22580636e-02 0. 3.22580636e-02 1.29032254e-01
      2.25806445e-01 9.67741907e-02 1.29032254e-01 6.45161271e-02
      1.29032254e-01 0. 6.45161271e-02</_>
    <_>
      1.42857149e-01 8.57142881e-02 0. 2.71428585e-01 4.28571440e-02 0.
      4.28571440e-02 8.57142881e-02 7.14285746e-02 1.85714290e-01
      1.42857144e-02 5.71428575e-02</_>
    <_>
      1.79487184e-01 5.12820520e-02 0. 7.69230798e-02 7.69230798e-02
      2.05128208e-01 2.56410260e-02 5.12820520e-02 5.12820520e-02
      2.30769232e-01 0. 5.12820520e-02</_>
    <_>
      7.69230798e-02 7.69230798e-02 3.84615399e-02 7.69230798e-02
      1.15384623e-01 1.53846160e-01 3.84615399e-02 5.76923117e-02
      5.76923117e-02 7.69230798e-02 1.92307696e-01 3.84615399e-02</_>
    <_>
      1.83333337e-01 6.66666701e-02 6.66666701e-02 8.33333358e-02
      6.66666701e-02 3.33333351e-02 1.50000006e-01 1.16666675e-01
      5.00000045e-02 5.00000045e-02 1.16666675e-01 1.66666675e-02</_>
    <_>
      1.45833343e-01 2.08333340e-02 0. 1.25000000e-01 6.25000000e-02
      1.04166672e-01 2.08333340e-02 1.25000000e-01 4.16666679e-02
      2.29166672e-01 4.16666679e-02 8.33333358e-02</_>
    <_>
      2.27272734e-02 1.59090906e-01 2.27272734e-02 2.27272734e-02
      1.36363640e-01 1.13636367e-01 4.54545468e-02 1.59090906e-01
      6.81818202e-02 6.81818202e-02 6.81818202e-02 1.13636367e-01</_>
    <_>
      1.38888896e-01 2.77777780e-02 0. 1.11111112e-01 1.11111112e-01
      5.55555560e-02 5.55555560e-02 5.55555560e-02 8.33333358e-02
      1.11111112e-01 1.38888896e-01 1.11111112e-01</_>
    <_>
      1.13207549e-01 7.54716992e-02 3.77358496e-02 3.77358496e-02
      5.66037744e-02 9.43396240e-02 7.54716992e-02 5.66037744e-02
      1.50943398e-01 1.32075474e-01 5.66037744e-02 1.13207549e-01</_>
    <_>
      0. 1.57894731e-01 5.26315793e-02 0. 1.05263159e-01 1.57894731e-01
      1.05263159e-01 1.57894731e-01 7.89473653e-02 1.31578952e-01
      2.63157897e-02 2.63157897e-02</_>
    <_>
      7.27272704e-02 1.63636357e-01 7.27272704e-02 5.45454547e-02
      5.45454547e-02 1.81818176e-02 1.27272725e-01 1.09090909e-01
      7.27272704e-02 5.45454547e-02 1.81818172e-01 1.81818176e-02</_>
    <_>
      9.80392173e-02 1.37254909e-01 5.88235334e-02 1.17647067e-01
      1.96078438e-02 9.80392173e-02 0. 3.92156877e-02 1.37254909e-01
      2.15686277e-01 1.96078438e-02 5.88235334e-02</_>
    <_>
      1.57894731e-01 1.57894731e-01 0. 5.26315793e-02 1.57894731e-01
      7.89473653e-02 0. 5.26315793e-02 7.89473653e-02 1.05263159e-01 0.
      1.57894731e-01</_>
    <_>
      7.01754391e-02 1.22807018e-01 1.75438598e-02 7.01754391e-02
      1.57894731e-01 5.26315793e-02 1.75438598e-02 1.75438598e-02
      1.05263159e-01 3.50877196e-02 1.40350878e-01 1.92982465e-01</_>
    <_>
      1.66666672e-01 6.25000000e-02 0. 6.25000000e-02 6.25000000e-02
      6.25000000e-02 2.08333340e-02 6.25000000e-02 6.25000000e-02
      3.12500000e-01 4.16666679e-02 8.33333358e-02</_>
    <_>
      6.25000000e-02 1.56250000e-01 3.12500000e-02 0. 9.37500000e-02
      3.12500000e-02 1.56250000e-01 1.56250000e-01 6.25000000e-02
      9.37500000e-02 9.37500000e-02 6.25000000e-02</_>
    <_>
      2.69230783e-01 3.84615399e-02 7.69230798e-02 7.69230798e-02
      7.69230798e-02 7.69230798e-02 5.76923117e-02 3.84615399e-02
      3.84615399e-02 1.15384623e-01 7.69230798e-02 5.76923117e-02</_>
    <_>
      6.45161271e-02 1.29032254e-01 0. 4.83870953e-02 9.67741907e-02
      4.83870953e-02 4.83870953e-02 8.06451589e-02 1.61290318e-01
      1.61290318e-01 1.12903222e-01 4.83870953e-02</_>
    <_>
      5.55555560e-02 9.25925970e-02 5.55555560e-02 7.40740746e-02
      7.40740746e-02 1.11111112e-01 1.11111112e-01 3.70370373e-02
      1.85185194e-01 5.55555560e-02 1.11111112e-01 3.70370373e-02</_>
    <_>
      1.48148149e-01 1.48148149e-01 9.25925970e-02 3.70370373e-02
      5.55555560e-02 5.55555560e-02 1.85185187e-02 1.11111112e-01
      1.29629627e-01 9.25925970e-02 5.55555560e-02 5.55555560e-02</_>
    <_>
      1.22448981e-01 1.02040812e-01 2.04081628e-02 1.02040812e-01
      6.12244904e-02 4.08163257e-02 1.02040812e-01 6.12244904e-02
      6.12244904e-02 1.83673471e-01 1.02040812e-01 4.08163257e-02</_>
    <_>
      8.33333358e-02 2.08333340e-02 6.25000000e-02 8.33333358e-02
      2.50000000e-01 8.33333358e-02 8.33333358e-02 8.33333358e-02 0.
      2.29166672e-01 2.08333340e-02 0.</_>
    <_>
      9.09090936e-02 1.36363640e-01 3.03030312e-02 6.06060624e-02
      9.09090936e-02 6.06060624e-02 7.57575780e-02 1.51515156e-02
      1.21212125e-01 1.51515156e-01 9.09090936e-02 7.57575780e-02</_>
    <_>
      4.16666679e-02 1.66666672e-01 2.08333340e-02 8.33333358e-02
      6.25000000e-02 4.16666679e-02 6.25000000e-02 4.16666679e-02
      4.16666679e-02 2.08333343e-01 1.66666672e-01 6.25000000e-02</_>
    <_>
      7.99999982e-02 7.99999982e-02 1.99999996e-02 3.99999991e-02
      1.99999988e-01 1.99999988e-01 1.40000001e-01 1.19999997e-01
      1.99999996e-02 1.99999996e-02 7.99999982e-02 0.</_>
    <_>
      7.81250000e-02 4.68750000e-02 4.68750000e-02 4.68750000e-02
      1.09375000e-01 1.40625000e-01 7.81250000e-02 1.25000000e-01
      9.37500000e-02 7.81250000e-02 9.37500000e-02 6.25000000e-02</_>
    <_>
      4.54545468e-02 1.81818187e-01 4.54545468e-02 0. 1.36363640e-01
      2.04545468e-01 0. 9.09090936e-02 9.09090936e-02 9.09090936e-02
      4.54545468e-02 6.81818202e-02</_>
    <_>
      8.62068981e-02 8.62068981e-02 5.17241359e-02 1.37931034e-01
      5.17241359e-02 6.89655170e-02 1.55172408e-01 1.03448272e-01
      1.72413792e-02 6.89655170e-02 1.37931034e-01 3.44827585e-02</_>
    <_>
      1.36363640e-01 6.81818202e-02 2.27272734e-02 1.13636367e-01
      4.54545468e-02 1.81818187e-01 4.54545468e-02 9.09090936e-02
      1.13636367e-01 9.09090936e-02 2.27272734e-02 6.81818202e-02</_>
    <_>
      6.81818202e-02 9.09090936e-02 0. 4.54545468e-02 1.13636367e-01
      2.27272734e-02 2.27272734e-01 1.36363640e-01 6.81818202e-02 0.
      1.13636367e-01 1.13636367e-01</_>
    <_>
      2.00000018e-01 1.50000006e-01 1.66666675e-02 6.66666701e-02
      1.66666675e-02 8.33333358e-02 1.33333340e-01 5.00000045e-02
      3.33333351e-02 1.33333340e-01 6.66666701e-02 5.00000045e-02</_>
    <_>
      2.04081625e-01 8.16326514e-02 0. 4.08163257e-02 1.02040812e-01
      8.16326514e-02 1.22448981e-01 4.08163257e-02 6.12244904e-02
      1.83673471e-01 4.08163257e-02 4.08163257e-02</_>
    <_>
      2.06896544e-01 0. 0. 3.44827585e-02 1.03448272e-01 1.72413796e-01
      0. 0. 6.89655170e-02 1.72413796e-01 3.44827585e-02 2.06896544e-01</_>
    <_>
      4.05405425e-02 1.08108111e-01 4.05405425e-02 4.05405425e-02
      8.10810849e-02 8.10810849e-02 8.10810849e-02 9.45945978e-02
      1.62162170e-01 8.10810849e-02 1.48648649e-01 4.05405425e-02</_>
    <_>
      4.34782617e-02 4.34782617e-02 2.17391308e-02 2.17391308e-02
      8.69565234e-02 1.30434781e-01 6.52173907e-02 2.17391312e-01
      1.30434781e-01 4.34782617e-02 1.30434781e-01 6.52173907e-02</_>
    <_>
      2.12765951e-02 1.70212761e-01 4.25531901e-02 6.38297871e-02
      1.91489354e-01 6.38297871e-02 8.51063803e-02 1.06382973e-01
      6.38297871e-02 8.51063803e-02 8.51063803e-02 2.12765951e-02</_>
    <_>
      1.21951215e-01 9.75609720e-02 0. 4.87804860e-02 1.21951215e-01 0.
      0. 4.87804860e-02 1.21951215e-01 3.17073166e-01 2.43902430e-02
      9.75609720e-02</_>
    <_>
      3.99999991e-02 5.99999987e-02 5.99999987e-02 9.99999940e-02
      9.99999940e-02 7.99999982e-02 1.40000001e-01 9.99999940e-02
      7.99999982e-02 9.99999940e-02 9.99999940e-02 3.99999991e-02</_>
    <_>
      1.42857149e-01 9.52381045e-02 1.58730168e-02 6.34920672e-02
      1.58730168e-02 7.93650821e-02 3.17460336e-02 1.58730168e-02
      1.42857149e-01 1.58730164e-01 1.74603179e-01 6.34920672e-02</_>
    <_>
      9.67741907e-02 3.22580636e-02 3.22580636e-02 3.22580636e-02
      2.25806445e-01 6.45161271e-02 1.61290318e-01 3.22580636e-02
      6.45161271e-02 6.45161271e-02 9.67741907e-02 9.67741907e-02</_>
    <_>
      8.47457647e-02 6.77966103e-02 3.38983051e-02 3.38983051e-02
      1.69491529e-01 1.86440676e-01 6.77966103e-02 6.77966103e-02 0.
      1.52542368e-01 1.01694912e-01 3.38983051e-02</_>
    <_>
      5.26315793e-02 1.31578952e-01 7.89473653e-02 1.05263159e-01
      5.26315793e-02 1.84210524e-01 2.63157897e-02 7.89473653e-02
      5.26315793e-02 1.05263159e-01 1.05263159e-01 2.63157897e-02</_>
    <_>
      2.80000001e-01 3.99999991e-02 0. 7.99999982e-02 1.19999997e-01
      1.19999997e-01 3.99999991e-02 0. 3.99999991e-02 1.19999997e-01 0.
      1.59999996e-01</_>
    <_>
      8.33333358e-02 1.25000000e-01 1.25000000e-01 8.33333358e-02 0.
      1.25000000e-01 8.33333358e-02 4.16666679e-02 1.25000000e-01
      8.33333358e-02 1.04166672e-01 2.08333340e-02</_>
    <_>
      1.26984134e-01 9.52381045e-02 1.58730168e-02 6.34920672e-02
      3.17460336e-02 7.93650821e-02 1.58730164e-01 1.42857149e-01
      9.52381045e-02 6.34920672e-02 7.93650821e-02 4.76190522e-02</_>
    <_>
      7.50000030e-02 2.50000004e-02 0. 2.50000004e-02 2.75000006e-01
      1.25000000e-01 5.00000007e-02 1.50000006e-01 5.00000007e-02
      1.50000006e-01 2.50000004e-02 5.00000007e-02</_>
    <_>
      1.17647059e-01 1.47058824e-02 4.41176482e-02 7.35294148e-02
      2.05882356e-01 5.88235296e-02 5.88235296e-02 1.47058824e-02
      7.35294148e-02 1.61764711e-01 1.32352948e-01 4.41176482e-02</_>
    <_>
      1.06382973e-01 1.59574464e-01 4.25531901e-02 7.44680837e-02
      2.12765951e-02 0. 9.57446769e-02 7.44680837e-02 8.51063803e-02
      1.48936167e-01 1.70212761e-01 2.12765951e-02</_>
    <_>
      2.12765951e-02 8.51063803e-02 6.38297871e-02 6.38297871e-02
      1.70212761e-01 4.25531901e-02 1.06382973e-01 1.27659574e-01
      8.51063803e-02 6.38297871e-02 8.51063803e-02 8.51063803e-02</_>
    <_>
      0. 8.19672048e-02 8.19672048e-02 8.19672048e-02 4.91803251e-02
      1.47540972e-01 6.55737668e-02 9.83606502e-02 1.14754096e-01
      1.14754096e-01 1.47540972e-01 1.63934417e-02</_>
    <_>
      5.79710156e-02 1.44927531e-01 2.89855078e-02 2.89855078e-02
      4.34782617e-02 4.34782617e-02 5.79710156e-02 8.69565234e-02
      1.30434781e-01 1.30434781e-01 1.73913047e-01 7.24637657e-02</_>
    <_>
      1.34615391e-01 1.73076928e-01 1.92307699e-02 1.34615391e-01
      7.69230798e-02 5.76923117e-02 3.84615399e-02 1.92307699e-02
      7.69230798e-02 9.61538479e-02 9.61538479e-02 7.69230798e-02</_>
    <_>
      5.17241359e-02 1.55172408e-01 5.17241359e-02 1.03448272e-01
      3.44827585e-02 6.89655170e-02 3.44827585e-02 3.44827585e-02
      1.20689653e-01 1.20689653e-01 1.89655170e-01 3.44827585e-02</_>
    <_>
      4.68750000e-02 6.25000000e-02 4.68750000e-02 9.37500000e-02
      3.12500000e-02 1.40625000e-01 6.25000000e-02 4.68750000e-02
      1.25000000e-01 1.71875000e-01 9.37500000e-02 7.81250000e-02</_>
    <_>
      1.05263159e-01 5.26315793e-02 2.63157897e-02 5.26315793e-02
      1.57894731e-01 1.57894731e-01 2.63157897e-02 5.26315793e-02
      2.63157897e-02 1.05263159e-01 1.57894731e-01 7.89473653e-02</_>
    <_>
      5.08474559e-02 1.01694912e-01 5.08474559e-02 1.35593221e-01
      6.77966103e-02 6.77966103e-02 3.38983051e-02 6.77966103e-02
      1.18644066e-01 6.77966103e-02 1.86440676e-01 5.08474559e-02</_>
    <_>
      6.97674453e-02 1.39534891e-01 4.65116277e-02 0. 9.30232555e-02
      1.39534891e-01 1.62790701e-01 1.16279066e-01 6.97674453e-02
      2.32558139e-02 9.30232555e-02 4.65116277e-02</_>
    <_>
      1.90476194e-01 7.14285746e-02 0. 7.14285746e-02 4.76190485e-02
      7.14285746e-02 1.19047619e-01 1.19047619e-01 2.38095243e-02
      1.66666672e-01 7.14285746e-02 4.76190485e-02</_>
    <_>
      1.53846160e-01 9.61538479e-02 3.84615399e-02 5.76923117e-02
      1.15384623e-01 1.34615391e-01 9.61538479e-02 9.61538479e-02
      3.84615399e-02 1.15384623e-01 1.92307699e-02 3.84615399e-02</_>
    <_>
      1.40000001e-01 1.99999996e-02 1.99999996e-02 9.99999940e-02
      2.59999990e-01 9.99999940e-02 3.99999991e-02 3.99999991e-02
      3.99999991e-02 5.99999987e-02 3.99999991e-02 1.40000001e-01</_>
    <_>
      1.17647067e-01 1.17647067e-01 1.96078438e-02 7.84313753e-02
      1.37254909e-01 3.92156877e-02 5.88235334e-02 5.88235334e-02
      1.17647067e-01 5.88235334e-02 9.80392173e-02 9.80392173e-02</_>
    <_>
      2.17391312e-01 8.69565234e-02 2.17391308e-02 6.52173907e-02
      6.52173907e-02 4.34782617e-02 6.52173907e-02 8.69565234e-02
      6.52173907e-02 1.52173921e-01 1.08695656e-01 2.17391308e-02</_>
    <_>
      6.25000000e-02 1.04166672e-01 6.25000000e-02 0. 8.33333358e-02
      2.08333340e-02 1.25000000e-01 1.25000000e-01 1.25000000e-01
      4.16666679e-02 1.45833343e-01 1.04166672e-01</_>
    <_>
      3.63636352e-02 3.63636352e-02 3.63636352e-02 5.45454547e-02
      5.45454547e-02 9.09090862e-02 7.27272704e-02 1.27272725e-01
      1.99999988e-01 1.63636357e-01 1.09090909e-01 1.81818176e-02</_>
    <_>
      3.54166687e-01 2.08333340e-02 2.08333340e-02 1.04166672e-01
      6.25000000e-02 6.25000000e-02 6.25000000e-02 1.25000000e-01 0.
      8.33333358e-02 6.25000000e-02 4.16666679e-02</_>
    <_>
      1.81818176e-02 1.27272725e-01 5.45454547e-02 1.81818176e-02
      9.09090862e-02 1.09090909e-01 1.81818172e-01 1.63636357e-01
      1.09090909e-01 5.45454547e-02 3.63636352e-02 3.63636352e-02</_>
    <_>
      1.53846160e-01 1.73076928e-01 3.84615399e-02 3.84615399e-02 0.
      7.69230798e-02 1.34615391e-01 1.53846160e-01 3.84615399e-02
      1.15384623e-01 5.76923117e-02 1.92307699e-02</_>
    <_>
      4.54545468e-02 1.81818187e-01 6.81818202e-02 1.13636367e-01 0.
      4.54545468e-02 6.81818202e-02 1.36363640e-01 9.09090936e-02
      6.81818202e-02 1.13636367e-01 6.81818202e-02</_>
    <_>
      5.35714328e-02 8.92857164e-02 5.35714328e-02 3.57142873e-02
      1.42857149e-01 1.07142866e-01 1.78571433e-01 8.92857164e-02
      5.35714328e-02 8.92857164e-02 8.92857164e-02 1.78571437e-02</_>
    <_>
      8.77192989e-02 1.05263159e-01 0. 1.92982465e-01 8.77192989e-02
      1.05263159e-01 0. 5.26315793e-02 3.50877196e-02 7.01754391e-02
      1.05263159e-01 1.57894731e-01</_>
    <_>
      6.12244904e-02 4.08163257e-02 4.08163257e-02 1.22448981e-01
      6.12244904e-02 8.16326514e-02 8.16326514e-02 2.04081628e-02
      1.02040812e-01 1.42857134e-01 4.08163257e-02 2.04081625e-01</_>
    <_>
      5.26315793e-02 5.26315793e-02 0. 5.26315793e-02 5.26315793e-02
      1.40350878e-01 1.40350878e-01 1.05263159e-01 7.01754391e-02
      1.92982465e-01 7.01754391e-02 7.01754391e-02</_>
    <_>
      1.38888896e-01 1.25000000e-01 1.38888890e-02 1.11111112e-01 0. 0.
      4.16666679e-02 5.55555560e-02 1.52777776e-01 8.33333358e-02
      1.38888896e-01 1.38888896e-01</_>
    <_>
      8.43373463e-02 1.20481923e-01 7.22891539e-02 6.02409616e-02
      1.20481923e-02 2.40963846e-02 3.61445770e-02 9.63855386e-02
      1.92771077e-01 1.68674693e-01 7.22891539e-02 6.02409616e-02</_>
    <_>
      1.16883114e-01 1.68831170e-01 5.19480519e-02 1.55844152e-01
      3.89610380e-02 2.59740259e-02 6.49350658e-02 1.29870130e-02
      1.16883114e-01 3.89610380e-02 1.42857149e-01 6.49350658e-02</_>
    <_>
      8.16326514e-02 1.02040812e-01 4.08163257e-02 4.08163257e-02
      8.16326514e-02 1.22448981e-01 4.08163257e-02 6.12244904e-02
      1.42857134e-01 1.02040812e-01 1.02040812e-01 8.16326514e-02</_>
    <_>
      3.92156877e-02 9.80392173e-02 3.92156877e-02 5.88235334e-02
      7.84313753e-02 1.17647067e-01 7.84313753e-02 7.84313753e-02
      9.80392173e-02 1.76470593e-01 1.17647067e-01 1.96078438e-02</_>
    <_>
      4.61538471e-02 1.07692309e-01 1.53846154e-02 4.61538471e-02
      6.15384616e-02 1.38461545e-01 6.15384616e-02 1.23076923e-01
      1.38461545e-01 1.07692309e-01 7.69230798e-02 7.69230798e-02</_>
    <_>
      4.91803251e-02 8.19672048e-02 6.55737668e-02 8.19672048e-02
      3.27868834e-02 4.91803251e-02 8.19672048e-02 1.47540972e-01
      1.31147534e-01 1.80327863e-01 6.55737668e-02 3.27868834e-02</_>
    <_>
      8.77192989e-02 8.77192989e-02 3.50877196e-02 1.05263159e-01
      1.75438598e-02 1.75438598e-02 7.01754391e-02 5.26315793e-02
      1.22807018e-01 8.77192989e-02 1.92982465e-01 1.22807018e-01</_>
    <_>
      1.08695656e-01 8.69565234e-02 4.34782617e-02 4.34782617e-02
      4.34782617e-02 1.73913047e-01 1.08695656e-01 4.34782617e-02
      6.52173907e-02 4.34782617e-02 8.69565234e-02 1.52173921e-01</_>
    <_>
      5.33333346e-02 1.59999996e-01 5.33333346e-02 1.33333340e-01
      2.66666673e-02 2.66666673e-02 7.99999982e-02 7.99999982e-02
      1.33333340e-01 1.20000005e-01 7.99999982e-02 5.33333346e-02</_>
    <_>
      3.94736826e-02 1.31578952e-01 2.63157897e-02 1.31578952e-01
      7.89473653e-02 5.26315793e-02 9.21052620e-02 2.63157897e-02
      1.18421055e-01 1.18421055e-01 1.05263159e-01 7.89473653e-02</_>
    <_>
      2.05128208e-01 2.56410260e-02 0. 2.56410260e-02 1.02564104e-01
      1.28205135e-01 1.28205135e-01 1.02564104e-01 1.02564104e-01
      1.02564104e-01 5.12820520e-02 2.56410260e-02</_>
    <_>
      2.22222224e-01 1.11111112e-01 8.33333358e-02 2.77777780e-02
      1.38888896e-01 5.55555560e-02 1.11111112e-01 5.55555560e-02
      2.77777780e-02 1.66666672e-01 0. 0.</_>
    <_>
      3.38983051e-02 3.38983051e-02 3.38983051e-02 8.47457647e-02
      1.86440676e-01 8.47457647e-02 8.47457647e-02 6.77966103e-02
      1.01694912e-01 1.18644066e-01 6.77966103e-02 1.01694912e-01</_>
    <_>
      1.56862751e-01 1.17647067e-01 7.84313753e-02 9.80392173e-02
      1.96078438e-02 0. 1.96078438e-02 7.84313753e-02 7.84313753e-02
      1.37254909e-01 1.76470593e-01 3.92156877e-02</_>
    <_>
      1.08108111e-01 5.40540554e-02 0. 5.40540554e-02 1.89189196e-01
      1.89189196e-01 8.10810849e-02 5.40540554e-02 1.08108111e-01
      1.08108111e-01 0. 5.40540554e-02</_>
    <_>
      4.25531901e-02 8.51063803e-02 6.38297871e-02 6.38297871e-02
      6.38297871e-02 1.27659574e-01 1.06382973e-01 0. 8.51063803e-02
      1.27659574e-01 1.06382973e-01 1.27659574e-01</_>
    <_>
      4.22535203e-02 1.12676054e-01 9.85915512e-02 1.40845068e-02
      4.22535203e-02 4.22535203e-02 1.12676054e-01 9.85915512e-02
      5.63380271e-02 1.26760557e-01 1.69014081e-01 8.45070407e-02</_>
    <_>
      7.54716992e-02 1.13207549e-01 1.88679248e-02 1.13207549e-01
      1.88679248e-02 7.54716992e-02 9.43396240e-02 1.13207549e-01
      9.43396240e-02 1.32075474e-01 9.43396240e-02 5.66037744e-02</_>
    <_>
      8.47457647e-02 1.18644066e-01 1.69491526e-02 2.03389823e-01
      6.77966103e-02 1.69491526e-02 1.69491526e-02 0. 8.47457647e-02
      1.69491529e-01 1.35593221e-01 8.47457647e-02</_>
    <_>
      1.19999997e-01 1.19999997e-01 0. 9.99999940e-02 1.19999997e-01
      7.99999982e-02 1.19999997e-01 1.99999996e-02 3.99999991e-02
      5.99999987e-02 1.19999997e-01 9.99999940e-02</_>
    <_>
      4.34782617e-02 4.34782617e-02 0. 8.69565234e-02 6.52173907e-02
      6.52173907e-02 1.08695656e-01 1.52173921e-01 8.69565234e-02
      8.69565234e-02 1.08695656e-01 1.52173921e-01</_>
    <_>
      7.40740746e-02 5.55555560e-02 0. 3.70370373e-02 3.70370373e-02
      5.55555560e-02 1.29629627e-01 9.25925970e-02 1.48148149e-01
      1.29629627e-01 7.40740746e-02 1.66666672e-01</_>
    <_>
      2.43902430e-02 4.87804860e-02 2.43902430e-02 1.70731694e-01
      4.87804860e-02 1.21951215e-01 1.46341458e-01 7.31707290e-02
      9.75609720e-02 4.87804860e-02 1.46341458e-01 4.87804860e-02</_>
    <_>
      1.66666672e-01 8.33333358e-02 8.33333358e-02 6.66666701e-02
      6.66666701e-02 1.66666675e-02 8.33333358e-02 3.33333351e-02
      1.16666675e-01 1.00000009e-01 1.33333340e-01 5.00000045e-02</_>
    <_>
      5.88235296e-02 1.47058830e-01 5.88235296e-02 2.64705896e-01
      1.47058830e-01 1.17647059e-01 2.94117648e-02 5.88235296e-02
      2.94117648e-02 8.82352963e-02 0. 0.</_>
    <_>
      8.47457647e-02 1.86440676e-01 1.69491526e-02 5.08474559e-02
      5.08474559e-02 3.38983051e-02 8.47457647e-02 5.08474559e-02
      1.18644066e-01 8.47457647e-02 1.35593221e-01 1.01694912e-01</_>
    <_>
      1.15942031e-01 7.24637657e-02 0. 8.69565234e-02 7.24637657e-02
      1.44927531e-01 1.01449281e-01 1.15942031e-01 1.30434781e-01
      1.44927539e-02 8.69565234e-02 5.79710156e-02</_>
    <_>
      5.55555560e-02 0. 7.40740746e-02 1.66666672e-01 5.55555560e-02
      7.40740746e-02 9.25925970e-02 9.25925970e-02 5.55555560e-02
      2.03703701e-01 0. 1.29629627e-01</_>
    <_>
      1.15384623e-01 7.69230798e-02 3.84615399e-02 3.84615399e-02
      3.84615399e-02 1.92307699e-02 9.61538479e-02 9.61538479e-02
      3.84615399e-02 2.30769247e-01 1.53846160e-01 5.76923117e-02</_>
    <_>
      4.34782617e-02 4.34782617e-02 1.52173921e-01 1.30434781e-01
      8.69565234e-02 1.73913047e-01 4.34782617e-02 4.34782617e-02
      4.34782617e-02 8.69565234e-02 8.69565234e-02 6.52173907e-02</_>
    <_>
      6.55737668e-02 1.14754096e-01 3.27868834e-02 4.91803251e-02
      3.27868834e-02 9.83606502e-02 4.91803251e-02 8.19672048e-02
      1.31147534e-01 1.63934410e-01 6.55737668e-02 1.14754096e-01</_>
    <_>
      9.83606502e-02 6.55737668e-02 9.83606502e-02 1.14754096e-01
      8.19672048e-02 4.91803251e-02 9.83606502e-02 1.14754096e-01
      3.27868834e-02 8.19672048e-02 1.31147534e-01 3.27868834e-02</_>
    <_>
      9.25925970e-02 9.25925970e-02 0. 2.22222224e-01 3.70370373e-02
      3.70370373e-02 3.70370373e-02 3.70370373e-02 1.11111112e-01
      1.48148149e-01 9.25925970e-02 9.25925970e-02</_>
    <_>
      2.63157897e-02 5.26315793e-02 2.63157897e-02 7.89473653e-02
      2.63157897e-02 7.89473653e-02 1.84210524e-01 1.31578952e-01
      1.05263159e-01 1.05263159e-01 2.63157897e-02 1.57894731e-01</_>
    <_>
      1.63934410e-01 8.19672048e-02 0. 3.27868834e-02 3.27868834e-02
      1.63934417e-02 3.27868834e-02 8.19672048e-02 1.47540972e-01
      1.63934410e-01 1.96721300e-01 4.91803251e-02</_>
    <_>
      7.99999982e-02 1.99999996e-02 3.99999991e-02 1.79999992e-01
      7.99999982e-02 1.40000001e-01 3.99999991e-02 5.99999987e-02
      1.19999997e-01 9.99999940e-02 3.99999991e-02 9.99999940e-02</_>
    <_>
      1.37931034e-01 1.03448272e-01 6.89655170e-02 1.03448272e-01
      1.37931034e-01 6.89655170e-02 6.89655170e-02 3.44827585e-02
      3.44827585e-02 6.89655170e-02 1.03448272e-01 6.89655170e-02</_>
    <_>
      9.80392173e-02 5.88235334e-02 3.92156877e-02 7.84313753e-02
      2.35294133e-01 1.17647067e-01 0. 1.96078438e-02 5.88235334e-02
      3.92156877e-02 1.17647067e-01 1.37254909e-01</_>
    <_>
      8.92857164e-02 1.42857149e-01 0. 1.25000000e-01 3.57142873e-02
      8.92857164e-02 1.07142866e-01 1.42857149e-01 8.92857164e-02
      8.92857164e-02 5.35714328e-02 3.57142873e-02</_>
    <_>
      3.50877196e-02 1.22807018e-01 3.50877196e-02 1.05263159e-01
      1.05263159e-01 8.77192989e-02 1.75438598e-02 5.26315793e-02
      8.77192989e-02 3.50877196e-02 2.10526317e-01 1.05263159e-01</_>
    <_>
      2.22222228e-02 1.11111112e-01 2.22222228e-02 6.66666701e-02
      1.33333340e-01 1.77777782e-01 6.66666701e-02 4.44444455e-02
      1.33333340e-01 6.66666701e-02 1.11111112e-01 4.44444455e-02</_>
    <_>
      3.03030312e-02 1.21212125e-01 6.06060624e-02 1.21212125e-01
      2.42424250e-01 1.51515156e-01 6.06060624e-02 9.09090936e-02
      3.03030312e-02 0. 6.06060624e-02 3.03030312e-02</_>
    <_>
      5.88235334e-02 1.17647067e-01 1.96078438e-02 5.88235334e-02
      5.88235334e-02 7.84313753e-02 9.80392173e-02 7.84313753e-02
      5.88235334e-02 1.56862751e-01 1.76470593e-01 3.92156877e-02</_>
    <_>
      6.89655170e-02 8.62068981e-02 3.44827585e-02 1.37931034e-01
      1.03448272e-01 5.17241359e-02 3.44827585e-02 1.72413792e-02
      8.62068981e-02 1.37931034e-01 1.89655170e-01 5.17241359e-02</_>
    <_>
      4.68750000e-02 4.68750000e-02 4.68750000e-02 3.12500000e-02
      2.34375000e-01 1.40625000e-01 7.81250000e-02 7.81250000e-02
      9.37500000e-02 6.25000000e-02 6.25000000e-02 7.81250000e-02</_>
    <_>
      1.07142866e-01 1.07142866e-01 1.78571437e-02 5.35714328e-02
      8.92857164e-02 8.92857164e-02 8.92857164e-02 3.57142873e-02
      1.07142866e-01 7.14285746e-02 1.42857149e-01 8.92857164e-02</_>
    <_>
      3.92156877e-02 7.84313753e-02 7.84313753e-02 3.92156877e-02
      1.17647067e-01 1.56862751e-01 1.17647067e-01 9.80392173e-02
      3.92156877e-02 1.56862751e-01 7.84313753e-02 0.</_>
    <_>
      1.40350878e-01 1.22807018e-01 1.75438598e-02 5.26315793e-02
      1.22807018e-01 1.22807018e-01 3.50877196e-02 7.01754391e-02
      1.05263159e-01 5.26315793e-02 1.05263159e-01 5.26315793e-02</_>
    <_>
      5.76923117e-02 9.61538479e-02 3.84615399e-02 5.76923117e-02
      7.69230798e-02 1.92307699e-02 9.61538479e-02 7.69230798e-02
      1.34615391e-01 1.92307696e-01 7.69230798e-02 7.69230798e-02</_>
    <_>
      1.69811323e-01 7.54716992e-02 1.88679248e-02 9.43396240e-02
      1.50943398e-01 9.43396240e-02 3.77358496e-02 1.50943398e-01
      1.88679248e-02 7.54716992e-02 3.77358496e-02 7.54716992e-02</_>
    <_>
      3.70370373e-02 7.40740746e-02 3.70370373e-02 7.40740746e-02
      1.48148149e-01 1.85185194e-01 0. 0. 3.70370373e-02 1.11111112e-01
      2.22222224e-01 7.40740746e-02</_>
    <_>
      4.91803251e-02 6.55737668e-02 3.27868834e-02 0. 1.47540972e-01
      1.63934410e-01 1.47540972e-01 4.91803251e-02 4.91803251e-02
      9.83606502e-02 1.47540972e-01 4.91803251e-02</_>
    <_>
      1.11111112e-01 8.33333358e-02 2.77777780e-02 5.55555560e-02
      5.55555560e-02 5.55555560e-02 5.55555560e-02 2.77777780e-02
      8.33333358e-02 2.77777791e-01 1.11111112e-01 5.55555560e-02</_>
    <_>
      1.25000000e-01 2.50000004e-02 0. 1.50000006e-01 1.25000000e-01
      5.00000007e-02 2.50000004e-02 2.50000004e-02 5.00000007e-02
      3.00000012e-01 1.00000001e-01 2.50000004e-02</_>
    <_>
      5.26315793e-02 1.22807018e-01 3.50877196e-02 3.50877196e-02
      8.77192989e-02 5.26315793e-02 5.26315793e-02 3.50877196e-02
      1.22807018e-01 1.75438598e-01 3.50877196e-02 1.92982465e-01</_>
    <_>
      2.45901629e-01 8.19672048e-02 3.27868834e-02 8.19672048e-02
      8.19672048e-02 0. 3.27868834e-02 4.91803251e-02 1.14754096e-01
      1.96721300e-01 3.27868834e-02 4.91803251e-02</_>
    <_>
      8.62068981e-02 3.44827585e-02 1.72413792e-02 1.37931034e-01
      3.44827585e-02 5.17241359e-02 5.17241359e-02 3.44827585e-02
      1.03448272e-01 3.27586204e-01 6.89655170e-02 5.17241359e-02</_>
    <_>
      8.33333358e-02 1.00000009e-01 1.66666675e-02 5.00000045e-02
      6.66666701e-02 6.66666701e-02 1.16666675e-01 1.00000009e-01
      8.33333358e-02 1.33333340e-01 6.66666701e-02 1.16666675e-01</_>
    <_>
      1.33333340e-01 6.66666701e-02 0. 6.66666701e-02 1.33333340e-01
      1.66666672e-01 1.66666675e-02 0. 3.33333351e-02 2.50000000e-01
      6.66666701e-02 6.66666701e-02</_>
    <_>
      4.28571440e-02 1.42857149e-01 5.71428575e-02 4.28571440e-02
      4.28571440e-02 8.57142881e-02 5.71428575e-02 1.14285715e-01
      1.28571436e-01 8.57142881e-02 1.71428576e-01 2.85714287e-02</_>
    <_>
      6.12244904e-02 1.63265303e-01 6.12244904e-02 1.02040812e-01
      6.12244904e-02 2.04081628e-02 6.12244904e-02 6.12244904e-02
      4.08163257e-02 3.06122452e-01 4.08163257e-02 2.04081628e-02</_>
    <_>
      1.00000001e-01 1.74999997e-01 5.00000007e-02 5.00000007e-02
      3.75000015e-02 0. 8.74999985e-02 8.74999985e-02 1.50000006e-01
      1.00000001e-01 1.37500003e-01 2.50000004e-02</_>
    <_>
      1.11111112e-01 7.40740746e-02 1.85185187e-02 9.25925970e-02
      1.11111112e-01 7.40740746e-02 1.85185187e-02 1.48148149e-01
      1.11111112e-01 5.55555560e-02 1.29629627e-01 5.55555560e-02</_>
    <_>
      1.13207549e-01 0. 1.88679248e-02 7.54716992e-02 1.88679248e-01
      7.54716992e-02 3.77358496e-02 5.66037744e-02 5.66037744e-02
      1.32075474e-01 3.77358496e-02 2.07547173e-01</_>
    <_>
      1.81818176e-02 1.63636357e-01 3.63636352e-02 1.45454541e-01
      9.09090862e-02 1.99999988e-01 0. 3.63636352e-02 7.27272704e-02
      3.63636352e-02 7.27272704e-02 1.27272725e-01</_>
    <_>
      1.58730164e-01 7.93650821e-02 1.58730168e-02 4.76190522e-02
      4.76190522e-02 7.93650821e-02 1.26984134e-01 9.52381045e-02
      1.26984134e-01 7.93650821e-02 1.42857149e-01 0.</_>
    <_>
      5.63380271e-02 9.85915512e-02 1.40845068e-02 7.04225302e-02
      1.54929578e-01 7.04225302e-02 5.63380271e-02 7.04225302e-02
      7.04225302e-02 1.26760557e-01 8.45070407e-02 1.26760557e-01</_>
    <_>
      1.45161286e-01 6.45161271e-02 0. 6.45161271e-02 0. 6.45161271e-02
      1.61290318e-01 8.06451589e-02 1.45161286e-01 1.29032254e-01
      1.45161286e-01 0.</_>
    <_>
      0. 1.72413796e-01 0. 0. 6.89655170e-02 0. 2.06896544e-01
      2.41379306e-01 6.89655170e-02 1.72413796e-01 0. 6.89655170e-02</_>
    <_>
      3.22580636e-02 4.83870953e-02 3.22580636e-02 9.67741907e-02
      1.45161286e-01 1.29032254e-01 8.06451589e-02 1.29032254e-01
      4.83870953e-02 4.83870953e-02 9.67741907e-02 1.12903222e-01</_>
    <_>
      1.85185187e-02 9.25925970e-02 1.85185187e-02 1.85185187e-02
      9.25925970e-02 1.11111112e-01 1.29629627e-01 1.66666672e-01
      7.40740746e-02 5.55555560e-02 1.66666672e-01 5.55555560e-02</_>
    <_>
      1.87500000e-01 0. 0. 1.25000000e-01 6.25000000e-02 9.37500000e-02
      3.12500000e-02 3.12500000e-02 0. 1.56250000e-01 3.12500000e-02
      2.81250000e-01</_>
    <_>
      5.26315793e-02 7.01754391e-02 7.01754391e-02 5.26315793e-02 0.
      3.50877196e-02 1.22807018e-01 1.40350878e-01 1.57894731e-01
      7.01754391e-02 1.57894731e-01 7.01754391e-02</_>
    <_>
      1.63265303e-01 1.02040812e-01 4.08163257e-02 6.12244904e-02
      1.63265303e-01 1.02040812e-01 6.12244904e-02 8.16326514e-02
      6.12244904e-02 6.12244904e-02 6.12244904e-02 4.08163257e-02</_>
    <_>
      6.75675720e-02 1.35135144e-01 2.70270277e-02 5.40540554e-02
      8.10810849e-02 2.70270277e-02 8.10810849e-02 6.75675720e-02
      1.21621624e-01 8.10810849e-02 1.89189196e-01 6.75675720e-02</_>
    <_>
      1.66666672e-01 3.70370373e-02 1.85185187e-02 2.03703701e-01
      5.55555560e-02 7.40740746e-02 1.85185187e-02 0. 7.40740746e-02
      2.59259254e-01 1.85185187e-02 7.40740746e-02</_>
    <_>
      3.33333343e-01 6.94444478e-02 5.55555560e-02 5.55555560e-02
      2.77777780e-02 2.77777780e-02 1.38888890e-02 0. 4.16666679e-02
      2.50000000e-01 4.16666679e-02 8.33333358e-02</_>
    <_>
      8.51063803e-02 6.38297871e-02 2.12765951e-02 0. 8.51063803e-02
      2.12765947e-01 4.25531901e-02 1.27659574e-01 4.25531901e-02
      2.34042540e-01 0. 8.51063803e-02</_>
    <_>
      1.85185187e-02 1.29629627e-01 5.55555560e-02 2.96296299e-01
      7.40740746e-02 1.85185187e-02 1.85185187e-02 3.70370373e-02
      7.40740746e-02 7.40740746e-02 5.55555560e-02 1.48148149e-01</_>
    <_>
      6.06060624e-02 6.06060624e-02 3.03030312e-02 6.06060624e-02
      1.21212125e-01 9.09090936e-02 1.21212125e-01 9.09090936e-02
      9.09090936e-02 2.12121218e-01 3.03030312e-02 3.03030312e-02</_>
    <_>
      7.01754391e-02 1.40350878e-01 1.05263159e-01 3.50877196e-02
      1.22807018e-01 1.05263159e-01 5.26315793e-02 8.77192989e-02
      1.05263159e-01 1.22807018e-01 5.26315793e-02 0.</_>
    <_>
      3.12500000e-01 6.25000000e-02 4.16666679e-02 4.16666679e-02 0.
      4.16666679e-02 2.08333340e-02 8.33333358e-02 4.16666679e-02
      2.50000000e-01 6.25000000e-02 4.16666679e-02</_>
    <_>
      7.46268630e-02 4.47761193e-02 1.49253728e-02 1.04477607e-01
      5.97014911e-02 7.46268630e-02 4.47761193e-02 1.19402982e-01
      1.19402982e-01 1.94029853e-01 1.19402982e-01 2.98507456e-02</_>
    <_>
      3.44827585e-02 3.44827585e-02 0. 2.06896544e-01 1.37931034e-01
      1.72413796e-01 3.44827585e-02 6.89655170e-02 6.89655170e-02
      3.44827585e-02 3.44827585e-02 1.72413796e-01</_>
    <_>
      1.78571437e-02 8.92857164e-02 7.14285746e-02 1.07142866e-01 0. 0.
      1.78571437e-02 1.25000000e-01 1.25000000e-01 1.25000000e-01
      3.03571433e-01 1.78571437e-02</_>
    <_>
      9.09090936e-02 1.66666672e-01 7.57575780e-02 9.09090936e-02
      3.03030312e-02 6.06060624e-02 7.57575780e-02 4.54545468e-02
      9.09090936e-02 9.09090936e-02 1.21212125e-01 6.06060624e-02</_>
    <_>
      7.50000030e-02 1.00000001e-01 8.74999985e-02 0. 7.50000030e-02
      5.00000007e-02 7.50000030e-02 1.50000006e-01 3.75000015e-02
      1.37500003e-01 1.25000000e-01 8.74999985e-02</_>
    <_>
      3.61445770e-02 1.44578308e-01 3.61445770e-02 8.43373463e-02
      2.40963846e-02 1.20481923e-02 6.02409616e-02 8.43373463e-02
      2.28915662e-01 1.08433731e-01 1.32530123e-01 4.81927693e-02</_>
    <_>
      8.10810849e-02 1.21621624e-01 9.45945978e-02 4.05405425e-02
      2.70270277e-02 6.75675720e-02 1.21621624e-01 1.35135144e-01
      1.21621624e-01 9.45945978e-02 8.10810849e-02 1.35135138e-02</_>
    <_>
      2.80701756e-01 0. 0. 5.26315793e-02 1.22807018e-01 1.40350878e-01
      3.50877196e-02 3.50877196e-02 1.75438598e-02 2.80701756e-01 0.
      3.50877196e-02</_>
    <_>
      5.26315793e-02 7.01754391e-02 7.01754391e-02 1.75438598e-02
      7.01754391e-02 1.75438598e-02 1.05263159e-01 1.75438598e-01
      1.40350878e-01 1.40350878e-01 8.77192989e-02 5.26315793e-02</_>
    <_>
      1.99999996e-02 7.99999982e-02 1.99999996e-02 5.99999987e-02
      1.79999992e-01 7.99999982e-02 1.19999997e-01 9.99999940e-02
      1.19999997e-01 1.19999997e-01 7.99999982e-02 1.99999996e-02</_>
    <_>
      1.59420297e-01 5.79710156e-02 2.89855078e-02 4.34782617e-02
      7.24637657e-02 8.69565234e-02 7.24637657e-02 4.34782617e-02
      5.79710156e-02 1.15942031e-01 1.44927531e-01 1.15942031e-01</_>
    <_>
      1.05263159e-01 5.26315793e-02 0. 1.57894731e-01 7.89473653e-02
      5.26315793e-02 7.89473653e-02 2.63157897e-02 1.05263159e-01
      2.63157904e-01 2.63157897e-02 5.26315793e-02</_>
    <_>
      9.67741907e-02 9.67741907e-02 0. 9.67741907e-02 1.93548381e-01
      9.67741907e-02 0. 6.45161271e-02 6.45161271e-02 1.29032254e-01
      6.45161271e-02 9.67741907e-02</_>
    <_>
      1.83673471e-01 2.24489793e-01 4.08163257e-02 8.16326514e-02 0. 0.
      2.04081628e-02 1.02040812e-01 2.04081628e-02 1.22448981e-01
      8.16326514e-02 1.22448981e-01</_>
    <_>
      8.47457647e-02 1.18644066e-01 6.77966103e-02 1.69491526e-02
      1.01694912e-01 1.01694912e-01 1.52542368e-01 1.01694912e-01
      8.47457647e-02 1.18644066e-01 3.38983051e-02 1.69491526e-02</_>
    <_>
      1.79999992e-01 9.99999940e-02 3.99999991e-02 9.99999940e-02
      1.99999996e-02 3.99999991e-02 9.99999940e-02 5.99999987e-02
      1.19999997e-01 1.40000001e-01 7.99999982e-02 1.99999996e-02</_>
    <_>
      1.17647067e-01 3.92156877e-02 1.96078438e-02 1.56862751e-01
      7.84313753e-02 7.84313753e-02 5.88235334e-02 3.92156877e-02
      3.92156877e-02 1.17647067e-01 3.92156877e-02 2.15686277e-01</_>
    <_>
      1.69491529e-01 6.77966103e-02 1.69491526e-02 1.52542368e-01
      5.08474559e-02 5.08474559e-02 1.69491526e-02 1.69491526e-02
      6.77966103e-02 2.03389823e-01 1.35593221e-01 5.08474559e-02</_>
    <_>
      2.43902430e-02 1.21951215e-01 7.31707290e-02 2.43902430e-02
      1.46341458e-01 2.43902430e-02 1.46341458e-01 9.75609720e-02
      9.75609720e-02 1.21951215e-01 7.31707290e-02 4.87804860e-02</_>
    <_>
      1.50000006e-01 5.00000007e-02 2.50000004e-02 7.50000030e-02
      7.50000030e-02 1.25000000e-01 5.00000007e-02 0. 7.50000030e-02
      1.50000006e-01 7.50000030e-02 1.50000006e-01</_>
    <_>
      6.38297871e-02 1.06382973e-01 2.12765951e-02 6.38297871e-02
      1.48936167e-01 1.70212761e-01 0. 4.25531901e-02 8.51063803e-02
      1.91489354e-01 8.51063803e-02 2.12765951e-02</_>
    <_>
      4.91803251e-02 2.13114738e-01 6.55737668e-02 9.83606502e-02
      4.91803251e-02 1.63934417e-02 6.55737668e-02 8.19672048e-02
      6.55737668e-02 2.13114738e-01 1.63934417e-02 6.55737668e-02</_>
    <_>
      6.45161271e-02 9.67741907e-02 0. 0. 1.12903222e-01 6.45161271e-02
      6.45161271e-02 1.12903222e-01 1.12903222e-01 2.09677413e-01
      9.67741907e-02 6.45161271e-02</_>
    <_>
      1.05263159e-01 8.77192989e-02 3.50877196e-02 7.01754391e-02
      3.50877196e-02 5.26315793e-02 7.01754391e-02 5.26315793e-02
      1.22807018e-01 1.22807018e-01 1.22807018e-01 1.22807018e-01</_>
    <_>
      1.50000006e-01 1.00000001e-01 0. 5.00000007e-02 1.25000000e-01
      1.00000001e-01 7.50000030e-02 1.25000000e-01 1.00000001e-01
      7.50000030e-02 1.00000001e-01 0.</_>
    <_>
      1.38888896e-01 2.77777780e-02 2.77777780e-02 5.55555560e-02
      1.11111112e-01 1.94444448e-01 5.55555560e-02 5.55555560e-02
      5.55555560e-02 1.94444448e-01 2.77777780e-02 5.55555560e-02</_>
    <_>
      6.81818202e-02 6.81818202e-02 0. 6.81818202e-02 1.36363640e-01
      1.59090906e-01 2.27272734e-02 0. 4.54545468e-02 1.59090906e-01
      2.27272734e-02 2.50000000e-01</_>
    <_>
      5.76923117e-02 1.15384623e-01 3.84615399e-02 1.34615391e-01
      1.15384623e-01 1.34615391e-01 3.84615399e-02 7.69230798e-02
      7.69230798e-02 1.34615391e-01 1.92307699e-02 5.76923117e-02</_>
    <_>
      9.25925970e-02 1.85185194e-01 7.40740746e-02 1.85185187e-02
      3.70370373e-02 1.85185187e-02 9.25925970e-02 5.55555560e-02
      5.55555560e-02 1.66666672e-01 1.85185194e-01 1.85185187e-02</_>
    <_>
      5.17241359e-02 1.72413796e-01 6.89655170e-02 5.17241359e-02
      3.44827585e-02 5.17241359e-02 1.20689653e-01 5.17241359e-02
      1.72413796e-01 8.62068981e-02 1.03448272e-01 3.44827585e-02</_>
    <_>
      6.06060624e-02 1.36363640e-01 1.51515156e-02 6.06060624e-02
      1.36363640e-01 7.57575780e-02 4.54545468e-02 4.54545468e-02
      7.57575780e-02 2.27272734e-01 7.57575780e-02 4.54545468e-02</_>
    <_>
      3.92156877e-02 2.15686277e-01 5.88235334e-02 1.96078438e-02
      5.88235334e-02 0. 1.37254909e-01 1.17647067e-01 9.80392173e-02
      7.84313753e-02 1.17647067e-01 5.88235334e-02</_>
    <_>
      1.40000001e-01 3.99999991e-02 0. 1.99999988e-01 1.19999997e-01
      1.99999996e-02 5.99999987e-02 0. 3.99999991e-02 1.19999997e-01 0.
      2.59999990e-01</_>
    <_>
      2.17391308e-02 1.52173921e-01 1.08695656e-01 4.34782617e-02
      1.08695656e-01 4.34782617e-02 8.69565234e-02 1.30434781e-01
      1.52173921e-01 2.17391308e-02 6.52173907e-02 6.52173907e-02</_>
    <_>
      1.78571433e-01 7.14285746e-02 1.78571437e-02 5.35714328e-02
      7.14285746e-02 1.25000000e-01 1.07142866e-01 7.14285746e-02
      7.14285746e-02 1.78571437e-02 1.07142866e-01 1.07142866e-01</_>
    <_>
      4.47761193e-02 8.95522386e-02 7.46268630e-02 5.97014911e-02
      1.64179102e-01 1.64179102e-01 2.98507456e-02 4.47761193e-02
      1.19402982e-01 8.95522386e-02 7.46268630e-02 4.47761193e-02</_>
    <_>
      1.32352948e-01 1.02941178e-01 2.94117648e-02 5.88235296e-02
      1.17647059e-01 1.17647059e-01 8.82352963e-02 8.82352963e-02
      4.41176482e-02 1.32352948e-01 4.41176482e-02 4.41176482e-02</_>
    <_>
      9.09090936e-02 1.21212125e-01 0. 2.12121218e-01 1.51515156e-01
      3.03030312e-02 6.06060624e-02 3.03030312e-02 9.09090936e-02
      6.06060624e-02 6.06060624e-02 9.09090936e-02</_>
    <_>
      2.12765951e-02 1.27659574e-01 4.25531901e-02 8.51063803e-02
      1.70212761e-01 1.06382973e-01 1.06382973e-01 4.25531901e-02
      4.25531901e-02 1.06382973e-01 8.51063803e-02 6.38297871e-02</_>
    <_>
      1.00000009e-01 3.33333351e-02 3.33333351e-02 1.66666672e-01
      1.00000009e-01 3.33333351e-02 6.66666701e-02 1.66666675e-02
      5.00000045e-02 1.33333340e-01 5.00000045e-02 2.16666684e-01</_>
    <_>
      1.20689653e-01 1.20689653e-01 0. 3.44827585e-02 8.62068981e-02
      6.89655170e-02 5.17241359e-02 6.89655170e-02 1.37931034e-01
      2.06896544e-01 8.62068981e-02 1.72413792e-02</_>
    <_>
      7.31707290e-02 9.75609720e-02 0. 7.31707290e-02 9.75609720e-02
      1.21951215e-01 7.31707290e-02 1.21951215e-01 1.21951215e-01
      7.31707290e-02 4.87804860e-02 9.75609720e-02</_>
    <_>
      1.15384616e-01 1.28205135e-01 3.84615399e-02 3.84615399e-02
      3.84615399e-02 1.28205130e-02 5.12820520e-02 5.12820520e-02
      8.97435918e-02 2.56410271e-01 1.15384616e-01 6.41025677e-02</_>
    <_>
      1.00000009e-01 1.50000006e-01 1.66666675e-02 6.66666701e-02
      6.66666701e-02 1.50000006e-01 3.33333351e-02 8.33333358e-02
      1.16666675e-01 1.16666675e-01 1.00000009e-01 0.</_>
    <_>
      2.09302321e-01 4.65116277e-02 2.32558139e-02 1.16279066e-01
      2.32558139e-02 6.97674453e-02 1.16279066e-01 1.39534891e-01
      1.39534891e-01 9.30232555e-02 0. 2.32558139e-02</_>
    <_>
      6.52173907e-02 8.69565234e-02 4.34782617e-02 4.34782617e-02
      1.52173921e-01 6.52173907e-02 8.69565234e-02 1.08695656e-01
      6.52173907e-02 1.73913047e-01 8.69565234e-02 2.17391308e-02</_>
    <_>
      1.61290318e-01 4.83870953e-02 3.22580636e-02 6.45161271e-02
      4.83870953e-02 2.58064508e-01 1.61290318e-02 8.06451589e-02
      6.45161271e-02 1.12903222e-01 0. 1.12903222e-01</_>
    <_>
      1.62162170e-01 1.35135144e-01 1.35135138e-02 5.40540554e-02
      9.45945978e-02 8.10810849e-02 1.21621624e-01 5.40540554e-02
      6.75675720e-02 8.10810849e-02 6.75675720e-02 6.75675720e-02</_>
    <_>
      8.82352963e-02 1.61764711e-01 2.94117648e-02 7.35294148e-02
      1.17647059e-01 5.88235296e-02 1.47058824e-02 5.88235296e-02
      1.32352948e-01 7.35294148e-02 8.82352963e-02 1.02941178e-01</_>
    <_>
      1.63265303e-01 4.08163257e-02 0. 8.16326514e-02 6.12244904e-02
      6.12244904e-02 6.12244904e-02 1.02040812e-01 1.22448981e-01
      1.42857134e-01 6.12244904e-02 1.02040812e-01</_>
    <_>
      9.09090862e-02 1.81818176e-02 0. 1.81818172e-01 1.63636357e-01
      7.27272704e-02 5.45454547e-02 3.63636352e-02 9.09090862e-02
      1.45454541e-01 7.27272704e-02 7.27272704e-02</_>
    <_>
      4.54545468e-02 9.09090936e-02 2.27272734e-02 6.81818202e-02
      2.04545468e-01 1.36363640e-01 4.54545468e-02 1.13636367e-01
      1.13636367e-01 0. 4.54545468e-02 1.13636367e-01</_>
    <_>
      5.71428575e-02 1.00000001e-01 2.85714287e-02 2.85714287e-02 0.
      1.42857144e-02 1.14285715e-01 1.14285715e-01 1.85714290e-01
      1.57142863e-01 1.42857149e-01 5.71428575e-02</_>
    <_>
      5.99999987e-02 7.99999982e-02 0. 9.99999940e-02 3.99999991e-02
      5.99999987e-02 9.99999940e-02 1.19999997e-01 1.40000001e-01
      1.59999996e-01 9.99999940e-02 3.99999991e-02</_>
    <_>
      6.75675720e-02 1.48648649e-01 4.05405425e-02 9.45945978e-02
      9.45945978e-02 6.75675720e-02 5.40540554e-02 4.05405425e-02
      1.35135144e-01 6.75675720e-02 6.75675720e-02 1.21621624e-01</_>
    <_>
      4.76190485e-02 1.42857149e-01 2.38095243e-02 7.14285746e-02
      4.76190485e-02 7.14285746e-02 2.38095243e-02 1.19047619e-01
      7.14285746e-02 1.66666672e-01 1.19047619e-01 9.52380970e-02</_>
    <_>
      1.16279066e-01 9.30232555e-02 4.65116277e-02 0. 6.97674453e-02
      9.30232555e-02 1.16279066e-01 9.30232555e-02 6.97674453e-02
      6.97674453e-02 1.39534891e-01 9.30232555e-02</_>
    <_>
      1.51515156e-01 3.03030312e-02 0. 2.12121218e-01 1.51515156e-01
      9.09090936e-02 6.06060624e-02 0. 3.03030312e-02 1.81818187e-01
      3.03030312e-02 6.06060624e-02</_>
    <_>
      9.23076943e-02 6.15384616e-02 4.61538471e-02 6.15384616e-02
      7.69230798e-02 3.07692308e-02 7.69230798e-02 3.07692308e-02
      1.84615389e-01 2.00000003e-01 7.69230798e-02 6.15384616e-02</_>
    <_>
      5.68181835e-02 1.47727281e-01 3.40909101e-02 7.95454532e-02
      6.81818202e-02 7.95454532e-02 5.68181835e-02 4.54545468e-02
      1.13636367e-01 1.25000000e-01 1.36363640e-01 5.68181835e-02</_>
    <_>
      5.55555560e-02 2.03703701e-01 1.85185187e-02 7.40740746e-02
      7.40740746e-02 5.55555560e-02 7.40740746e-02 5.55555560e-02
      1.11111112e-01 9.25925970e-02 1.11111112e-01 7.40740746e-02</_>
    <_>
      1.16279066e-01 4.65116277e-02 4.65116277e-02 1.16279066e-01
      1.39534891e-01 6.97674453e-02 0. 0. 9.30232555e-02 1.16279066e-01
      1.39534891e-01 1.16279066e-01</_>
    <_>
      4.16666679e-02 8.33333358e-02 4.16666679e-02 0. 1.04166672e-01
      8.33333358e-02 2.50000000e-01 1.25000000e-01 8.33333358e-02
      8.33333358e-02 2.08333340e-02 8.33333358e-02</_>
    <_>
      1.81818187e-01 0. 4.54545468e-02 1.13636367e-01 1.13636367e-01
      6.81818202e-02 2.27272734e-02 0. 2.27272734e-02 1.36363640e-01
      9.09090936e-02 2.04545468e-01</_>
    <_>
      4.65116277e-02 1.39534891e-01 2.32558139e-02 4.65116277e-02 0.
      4.65116277e-02 6.97674453e-02 1.39534891e-01 1.39534891e-01
      1.39534891e-01 9.30232555e-02 1.16279066e-01</_>
    <_>
      1.02564104e-01 2.56410260e-02 0. 1.53846160e-01 7.69230798e-02
      2.05128208e-01 7.69230798e-02 5.12820520e-02 7.69230798e-02
      1.79487184e-01 0. 5.12820520e-02</_>
    <_>
      7.14285746e-02 9.52380970e-02 2.38095243e-02 9.52380970e-02
      9.52380970e-02 1.42857149e-01 4.76190485e-02 2.38095243e-02
      1.19047619e-01 1.42857149e-01 9.52380970e-02 4.76190485e-02</_>
    <_>
      1.02040812e-01 1.42857134e-01 4.08163257e-02 4.08163257e-02
      1.02040812e-01 1.02040812e-01 8.16326514e-02 8.16326514e-02
      8.16326514e-02 8.16326514e-02 1.02040812e-01 4.08163257e-02</_>
    <_>
      2.85714287e-02 8.57142881e-02 2.85714287e-02 4.28571440e-02
      1.85714290e-01 4.28571440e-02 8.57142881e-02 5.71428575e-02
      7.14285746e-02 2.00000003e-01 1.14285715e-01 5.71428575e-02</_>
    <_>
      8.69565234e-02 5.79710156e-02 4.34782617e-02 5.79710156e-02
      5.79710156e-02 8.69565234e-02 8.69565234e-02 1.30434781e-01
      1.01449281e-01 1.44927531e-01 1.15942031e-01 2.89855078e-02</_>
    <_>
      8.51063803e-02 8.51063803e-02 2.12765951e-02 6.38297871e-02
      6.38297871e-02 0. 4.25531901e-02 2.12765951e-02 8.51063803e-02
      2.12765947e-01 2.55319148e-01 6.38297871e-02</_>
    <_>
      1.25000000e-01 1.04166672e-01 2.08333340e-02 4.16666679e-02
      6.25000000e-02 6.25000000e-02 8.33333358e-02 1.04166672e-01
      6.25000000e-02 2.08333343e-01 1.04166672e-01 2.08333340e-02</_>
    <_>
      8.51063803e-02 1.27659574e-01 2.12765951e-02 1.06382973e-01
      6.38297871e-02 6.38297871e-02 2.12765951e-02 8.51063803e-02
      1.06382973e-01 4.25531901e-02 1.27659574e-01 1.48936167e-01</_>
    <_>
      4.76190485e-02 2.38095243e-02 9.52380970e-02 4.76190485e-02
      1.66666672e-01 1.90476194e-01 2.38095243e-02 4.76190485e-02
      7.14285746e-02 1.42857149e-01 7.14285746e-02 7.14285746e-02</_>
    <_>
      9.30232555e-02 6.97674453e-02 6.97674453e-02 1.16279066e-01
      1.39534891e-01 2.55813956e-01 0. 0. 2.32558139e-02 9.30232555e-02
      6.97674453e-02 6.97674453e-02</_>
    <_>
      7.24637657e-02 1.30434781e-01 7.24637657e-02 1.44927539e-02
      2.89855078e-02 1.44927539e-02 7.24637657e-02 1.15942031e-01
      1.88405797e-01 4.34782617e-02 1.59420297e-01 8.69565234e-02</_>
    <_>
      1.34615391e-01 1.73076928e-01 1.92307699e-02 0. 3.84615399e-02
      3.84615399e-02 7.69230798e-02 1.73076928e-01 1.34615391e-01
      1.15384623e-01 1.92307699e-02 7.69230798e-02</_>
    <_>
      9.37500000e-02 1.25000000e-01 3.12500000e-02 1.56250000e-02
      1.56250000e-02 1.56250000e-02 7.81250000e-02 4.68750000e-02
      9.37500000e-02 2.96875000e-01 1.87500000e-01 0.</_>
    <_>
      7.69230798e-02 1.07692309e-01 1.53846154e-02 6.15384616e-02
      1.07692309e-01 7.69230798e-02 9.23076943e-02 1.38461545e-01
      1.07692309e-01 7.69230798e-02 1.07692309e-01 3.07692308e-02</_>
    <_>
      6.77966103e-02 5.08474559e-02 1.69491526e-02 1.69491526e-02
      5.08474559e-02 8.47457647e-02 3.38983051e-02 1.35593221e-01
      6.77966103e-02 2.54237294e-01 1.69491529e-01 5.08474559e-02</_>
    <_>
      1.27272725e-01 1.45454541e-01 7.27272704e-02 7.27272704e-02
      1.09090909e-01 5.45454547e-02 1.81818176e-02 7.27272704e-02
      1.09090909e-01 5.45454547e-02 1.09090909e-01 5.45454547e-02</_>
    <_>
      1.80327863e-01 6.55737668e-02 0. 1.31147534e-01 4.91803251e-02
      6.55737668e-02 8.19672048e-02 6.55737668e-02 4.91803251e-02
      1.63934410e-01 1.63934417e-02 1.31147534e-01</_>
    <_>
      7.79220760e-02 1.55844152e-01 5.19480519e-02 1.29870130e-02
      2.59740259e-02 2.59740259e-02 6.49350658e-02 1.29870132e-01
      1.29870132e-01 1.03896104e-01 1.55844152e-01 6.49350658e-02</_>
    <_>
      5.76923117e-02 1.53846160e-01 3.84615399e-02 3.84615399e-02 0.
      7.69230798e-02 5.76923117e-02 2.30769247e-01 7.69230798e-02
      1.92307696e-01 5.76923117e-02 1.92307699e-02</_>
    <_>
      5.26315793e-02 1.57894731e-01 3.50877196e-02 7.01754391e-02
      1.05263159e-01 1.05263159e-01 5.26315793e-02 5.26315793e-02
      7.01754391e-02 1.05263159e-01 1.75438598e-01 1.75438598e-02</_>
    <_>
      5.08474559e-02 1.86440676e-01 3.38983051e-02 6.77966103e-02
      6.77966103e-02 1.01694912e-01 1.86440676e-01 6.77966103e-02
      8.47457647e-02 3.38983051e-02 3.38983051e-02 8.47457647e-02</_>
    <_>
      6.12244904e-02 1.02040812e-01 0. 6.12244904e-02 4.08163257e-02
      1.02040812e-01 1.02040812e-01 1.42857134e-01 4.08163257e-02
      1.63265303e-01 1.02040812e-01 8.16326514e-02</_>
    <_>
      4.65116277e-02 2.32558139e-02 9.30232555e-02 2.32558139e-02
      6.97674453e-02 9.30232555e-02 1.39534891e-01 9.30232555e-02
      1.62790701e-01 1.16279066e-01 9.30232555e-02 4.65116277e-02</_>
    <_>
      1.29629627e-01 5.55555560e-02 1.85185187e-02 5.55555560e-02
      3.70370373e-02 9.25925970e-02 2.22222224e-01 1.11111112e-01
      3.70370373e-02 1.48148149e-01 7.40740746e-02 1.85185187e-02</_>
    <_>
      1.37254909e-01 1.56862751e-01 1.96078438e-02 7.84313753e-02
      3.92156877e-02 3.92156877e-02 3.92156877e-02 3.92156877e-02
      1.56862751e-01 9.80392173e-02 5.88235334e-02 1.37254909e-01</_>
    <_>
      2.70270277e-02 0. 2.70270277e-02 1.35135144e-01 2.70270288e-01
      8.10810849e-02 5.40540554e-02 5.40540554e-02 0. 5.40540554e-02
      1.08108111e-01 1.89189196e-01</_>
    <_>
      1.52542368e-01 1.01694912e-01 5.08474559e-02 5.08474559e-02
      3.38983051e-02 8.47457647e-02 1.86440676e-01 6.77966103e-02
      6.77966103e-02 6.77966103e-02 1.18644066e-01 1.69491526e-02</_>
    <_>
      1.11111112e-01 8.33333358e-02 0. 5.55555560e-02 2.77777780e-02
      1.94444448e-01 1.94444448e-01 5.55555560e-02 1.11111112e-01
      8.33333358e-02 5.55555560e-02 2.77777780e-02</_>
    <_>
      8.95522386e-02 5.97014911e-02 4.47761193e-02 8.95522386e-02
      1.79104477e-01 5.97014911e-02 5.97014911e-02 1.49253726e-01
      8.95522386e-02 4.47761193e-02 1.04477607e-01 2.98507456e-02</_>
    <_>
      8.92857164e-02 5.35714328e-02 1.78571437e-02 5.35714328e-02
      1.07142866e-01 1.07142866e-01 5.35714328e-02 7.14285746e-02
      7.14285746e-02 2.32142866e-01 5.35714328e-02 8.92857164e-02</_>
    <_>
      4.25531901e-02 4.25531901e-02 6.38297871e-02 6.38297871e-02
      6.38297871e-02 2.12765951e-02 1.48936167e-01 1.27659574e-01
      1.27659574e-01 1.27659574e-01 1.06382973e-01 6.38297871e-02</_>
    <_>
      1.37931034e-01 3.44827585e-02 3.44827585e-02 1.03448272e-01
      2.75862068e-01 1.03448272e-01 3.44827585e-02 3.44827585e-02
      3.44827585e-02 1.37931034e-01 3.44827585e-02 3.44827585e-02</_>
    <_>
      2.63157897e-02 9.21052620e-02 2.63157897e-02 1.31578952e-01
      7.89473653e-02 7.89473653e-02 6.57894760e-02 1.31578952e-01
      1.31578952e-01 7.89473653e-02 9.21052620e-02 6.57894760e-02</_>
    <_>
      2.14285731e-01 1.42857149e-01 0. 1.78571437e-02 5.35714328e-02
      1.78571437e-02 1.07142866e-01 8.92857164e-02 5.35714328e-02
      1.60714298e-01 1.42857149e-01 0.</_>
    <_>
      6.25000000e-02 3.12500000e-02 3.12500000e-02 6.25000000e-02
      6.25000000e-02 1.25000000e-01 1.25000000e-01 6.25000000e-02
      9.37500000e-02 9.37500000e-02 1.87500000e-01 6.25000000e-02</_>
    <_>
      1.20689653e-01 1.37931034e-01 6.89655170e-02 3.44827585e-02
      1.72413792e-02 3.44827585e-02 1.20689653e-01 8.62068981e-02
      1.20689653e-01 1.55172408e-01 1.03448272e-01 0.</_>
    <_>
      1.53846160e-01 1.02564104e-01 5.12820520e-02 2.56410260e-02
      5.12820520e-02 5.12820520e-02 5.12820520e-02 7.69230798e-02
      1.53846160e-01 1.28205135e-01 7.69230798e-02 7.69230798e-02</_>
    <_>
      4.44444455e-02 1.11111112e-01 2.22222228e-02 4.44444455e-02
      1.11111112e-01 1.55555561e-01 6.66666701e-02 1.33333340e-01
      1.11111112e-01 4.44444455e-02 1.33333340e-01 2.22222228e-02</_>
    <_>
      2.12765951e-02 1.06382973e-01 4.25531901e-02 4.25531901e-02
      1.48936167e-01 1.27659574e-01 6.38297871e-02 4.25531901e-02
      1.48936167e-01 6.38297871e-02 1.06382973e-01 8.51063803e-02</_>
    <_>
      1.46666676e-01 1.20000005e-01 5.33333346e-02 0. 0. 3.99999991e-02
      1.06666669e-01 1.06666669e-01 1.73333332e-01 1.06666669e-01
      1.33333340e-01 1.33333337e-02</_>
    <_>
      8.95522386e-02 1.64179102e-01 4.47761193e-02 8.95522386e-02
      5.97014911e-02 1.49253728e-02 1.04477607e-01 4.47761193e-02
      8.95522386e-02 1.64179102e-01 7.46268630e-02 5.97014911e-02</_>
    <_>
      6.81818202e-02 9.09090936e-02 0. 9.09090936e-02 9.09090936e-02
      1.36363640e-01 1.13636367e-01 9.09090936e-02 1.13636367e-01
      1.13636367e-01 2.27272734e-02 6.81818202e-02</_>
    <_>
      6.15384616e-02 6.15384616e-02 3.07692308e-02 1.84615389e-01
      4.61538471e-02 4.61538471e-02 4.61538471e-02 6.15384616e-02
      1.38461545e-01 1.38461545e-01 6.15384616e-02 1.23076923e-01</_>
    <_>
      2.81690136e-02 1.12676054e-01 4.22535203e-02 1.40845068e-02
      8.45070407e-02 1.12676054e-01 1.40845060e-01 1.40845060e-01
      8.45070407e-02 1.69014081e-01 5.63380271e-02 1.40845068e-02</_>
    <_>
      1.11111119e-01 1.11111119e-01 0. 1.58730164e-01 1.42857149e-01 0.
      3.17460336e-02 1.58730168e-02 6.34920672e-02 9.52381045e-02
      1.42857149e-01 1.26984134e-01</_>
    <_>
      2.56410271e-01 7.69230798e-02 0. 1.28205135e-01 7.69230798e-02
      1.02564104e-01 0. 1.53846160e-01 5.12820520e-02 0. 7.69230798e-02
      7.69230798e-02</_>
    <_>
      4.76190485e-02 4.76190485e-02 7.14285746e-02 0. 1.90476194e-01
      1.42857149e-01 7.14285746e-02 7.14285746e-02 1.19047619e-01
      4.76190485e-02 1.19047619e-01 7.14285746e-02</_>
    <_>
      8.88888910e-02 1.11111112e-01 4.44444455e-02 4.44444455e-02
      8.88888910e-02 8.88888910e-02 1.55555561e-01 6.66666701e-02
      4.44444455e-02 8.88888910e-02 1.11111112e-01 6.66666701e-02</_>
    <_>
      1.02040812e-01 1.02040812e-01 2.04081628e-02 4.08163257e-02
      4.08163257e-02 1.02040812e-01 6.12244904e-02 1.02040812e-01
      1.22448981e-01 2.04081625e-01 8.16326514e-02 2.04081628e-02</_>
    <_>
      9.25925970e-02 7.40740746e-02 3.70370373e-02 3.70370373e-02
      2.59259254e-01 5.55555560e-02 7.40740746e-02 7.40740746e-02
      5.55555560e-02 1.11111112e-01 9.25925970e-02 3.70370373e-02</_>
    <_>
      3.17460336e-02 7.93650821e-02 3.17460336e-02 3.17460336e-02
      1.74603179e-01 1.26984134e-01 1.11111119e-01 1.58730164e-01
      4.76190522e-02 6.34920672e-02 4.76190522e-02 9.52381045e-02</_>
    <_>
      2.08333340e-02 1.04166672e-01 4.16666679e-02 0. 1.45833343e-01
      8.33333358e-02 6.25000000e-02 1.04166672e-01 1.87500000e-01
      1.25000000e-01 4.16666679e-02 8.33333358e-02</_>
    <_>
      9.43396240e-02 7.54716992e-02 1.88679248e-02 3.77358496e-02
      1.13207549e-01 9.43396240e-02 7.54716992e-02 3.77358496e-02
      9.43396240e-02 1.13207549e-01 1.32075474e-01 1.13207549e-01</_>
    <_>
      5.99999987e-02 5.99999987e-02 3.99999991e-02 1.40000001e-01
      9.99999940e-02 2.19999999e-01 5.99999987e-02 5.99999987e-02
      7.99999982e-02 5.99999987e-02 3.99999991e-02 7.99999982e-02</_>
    <_>
      6.55737668e-02 1.14754096e-01 4.91803251e-02 8.19672048e-02
      6.55737668e-02 9.83606502e-02 1.14754096e-01 6.55737668e-02
      9.83606502e-02 9.83606502e-02 8.19672048e-02 6.55737668e-02</_>
    <_>
      5.88235334e-02 7.84313753e-02 3.92156877e-02 1.37254909e-01
      9.80392173e-02 5.88235334e-02 9.80392173e-02 3.92156877e-02
      1.17647067e-01 1.37254909e-01 7.84313753e-02 5.88235334e-02</_>
    <_>
      1.91780820e-01 9.58904102e-02 8.21917802e-02 5.47945201e-02
      6.84931502e-02 4.10958901e-02 9.58904102e-02 5.47945201e-02
      5.47945201e-02 5.47945201e-02 1.78082198e-01 2.73972601e-02</_>
    <_>
      1.76470593e-01 7.84313753e-02 0. 1.17647067e-01 5.88235334e-02
      7.84313753e-02 9.80392173e-02 5.88235334e-02 1.17647067e-01
      9.80392173e-02 5.88235334e-02 5.88235334e-02</_>
    <_>
      9.61538479e-02 7.69230798e-02 3.84615399e-02 0. 3.84615399e-02
      1.92307696e-01 5.76923117e-02 5.76923117e-02 9.61538479e-02
      9.61538479e-02 5.76923117e-02 1.92307696e-01</_>
    <_>
      4.16666679e-02 4.16666679e-02 4.16666679e-02 8.33333358e-02
      4.16666679e-02 0. 1.66666672e-01 1.25000000e-01 1.66666672e-01
      8.33333358e-02 1.66666672e-01 4.16666679e-02</_>
    <_>
      9.61538479e-02 9.61538479e-02 1.92307699e-02 1.53846160e-01
      9.61538479e-02 7.69230798e-02 3.84615399e-02 7.69230798e-02
      9.61538479e-02 1.34615391e-01 1.92307699e-02 9.61538479e-02</_>
    <_>
      1.59999996e-01 0. 0. 7.99999982e-02 1.19999997e-01 7.99999982e-02
      7.99999982e-02 3.99999991e-02 3.99999991e-02 3.19999993e-01
      7.99999982e-02 0.</_>
    <_>
      1.25000000e-01 1.25000000e-01 0. 2.08333340e-02 1.04166672e-01
      6.25000000e-02 4.16666679e-02 4.16666679e-02 1.66666672e-01
      1.25000000e-01 1.04166672e-01 8.33333358e-02</_>
    <_>
      4.65116277e-02 4.65116277e-02 4.65116277e-02 1.86046511e-01
      2.09302321e-01 6.97674453e-02 9.30232555e-02 6.97674453e-02 0.
      9.30232555e-02 4.65116277e-02 9.30232555e-02</_>
    <_>
      8.16326514e-02 1.02040812e-01 6.12244904e-02 0. 1.42857134e-01
      4.08163257e-02 1.63265303e-01 1.63265303e-01 2.04081628e-02
      1.42857134e-01 8.16326514e-02 0.</_>
    <_>
      1.11111119e-01 3.17460336e-02 0. 3.17460336e-02 2.06349224e-01
      1.11111119e-01 6.34920672e-02 7.93650821e-02 3.17460336e-02
      2.38095254e-01 3.17460336e-02 6.34920672e-02</_>
    <_>
      7.84313753e-02 7.84313753e-02 5.88235334e-02 9.80392173e-02
      3.92156877e-02 3.92156877e-02 1.17647067e-01 9.80392173e-02
      9.80392173e-02 1.37254909e-01 1.17647067e-01 3.92156877e-02</_>
    <_>
      2.12765947e-01 2.12765951e-02 2.12765951e-02 4.25531901e-02
      8.51063803e-02 1.27659574e-01 6.38297871e-02 6.38297871e-02
      4.25531901e-02 2.34042540e-01 4.25531901e-02 4.25531901e-02</_>
    <_>
      0. 9.99999940e-02 3.99999991e-02 1.99999996e-02 3.99999991e-02
      3.99999991e-02 9.99999940e-02 1.19999997e-01 1.59999996e-01
      1.19999997e-01 1.79999992e-01 7.99999982e-02</_>
    <_>
      0. 1.70212761e-01 2.12765951e-02 2.12765951e-02 1.91489354e-01
      4.25531901e-02 6.38297871e-02 6.38297871e-02 1.06382973e-01
      8.51063803e-02 6.38297871e-02 1.70212761e-01</_>
    <_>
      1.19047619e-01 1.19047619e-01 4.76190485e-02 9.52380970e-02
      7.14285746e-02 9.52380970e-02 0. 7.14285746e-02 1.66666672e-01
      9.52380970e-02 9.52380970e-02 2.38095243e-02</_>
    <_>
      3.57142873e-02 1.96428582e-01 5.35714328e-02 1.78571437e-02
      8.92857164e-02 3.57142873e-02 1.25000000e-01 3.57142873e-02
      8.92857164e-02 1.07142866e-01 1.25000000e-01 8.92857164e-02</_>
    <_>
      7.24637657e-02 1.15942031e-01 7.24637657e-02 2.89855078e-02
      4.34782617e-02 5.79710156e-02 1.01449281e-01 7.24637657e-02
      1.30434781e-01 2.46376812e-01 5.79710156e-02 0.</_>
    <_>
      1.32075474e-01 1.13207549e-01 3.77358496e-02 1.32075474e-01 0.
      9.43396240e-02 9.43396240e-02 3.77358496e-02 7.54716992e-02
      1.13207549e-01 1.13207549e-01 5.66037744e-02</_>
    <_>
      1.46341458e-01 7.31707290e-02 9.75609720e-02 2.43902430e-02
      7.31707290e-02 9.75609720e-02 7.31707290e-02 9.75609720e-02
      4.87804860e-02 1.21951215e-01 7.31707290e-02 7.31707290e-02</_>
    <_>
      1.30434781e-01 8.69565234e-02 1.08695656e-01 4.34782617e-02 0.
      1.52173921e-01 4.34782617e-02 6.52173907e-02 1.73913047e-01
      1.30434781e-01 6.52173907e-02 0.</_>
    <_>
      1.11111112e-01 1.11111112e-01 0. 6.66666701e-02 2.22222228e-02
      1.55555561e-01 1.11111112e-01 8.88888910e-02 6.66666701e-02
      1.33333340e-01 1.11111112e-01 2.22222228e-02</_>
    <_>
      0. 9.37500000e-02 6.25000000e-02 6.25000000e-02 1.25000000e-01
      1.40625000e-01 4.68750000e-02 1.25000000e-01 1.56250000e-01
      4.68750000e-02 1.25000000e-01 1.56250000e-02</_>
    <_>
      6.38297871e-02 1.06382973e-01 4.25531901e-02 1.27659574e-01
      1.70212761e-01 2.12765951e-02 4.25531901e-02 6.38297871e-02
      8.51063803e-02 1.06382973e-01 1.48936167e-01 2.12765951e-02</_>
    <_>
      2.85714287e-02 5.71428575e-02 0. 8.57142881e-02 5.71428575e-02
      5.71428575e-02 1.14285715e-01 1.14285715e-01 5.71428575e-02
      1.42857149e-01 2.00000003e-01 8.57142881e-02</_>
    <_>
      1.88679248e-02 3.77358496e-02 3.77358496e-02 3.77358496e-02
      1.32075474e-01 1.32075474e-01 9.43396240e-02 9.43396240e-02
      7.54716992e-02 1.69811323e-01 5.66037744e-02 1.13207549e-01</_>
    <_>
      6.06060624e-02 9.09090936e-02 6.06060624e-02 1.21212125e-01
      3.03030312e-02 2.12121218e-01 0. 6.06060624e-02 9.09090936e-02
      2.42424250e-01 3.03030312e-02 0.</_>
    <_>
      6.52173907e-02 1.52173921e-01 0. 1.30434781e-01 1.30434781e-01
      2.17391308e-02 4.34782617e-02 4.34782617e-02 1.30434781e-01
      6.52173907e-02 1.08695656e-01 1.08695656e-01</_>
    <_>
      2.27272734e-02 1.81818187e-01 2.27272734e-02 1.36363640e-01
      4.54545468e-02 1.13636367e-01 1.59090906e-01 6.81818202e-02
      6.81818202e-02 9.09090936e-02 2.27272734e-02 6.81818202e-02</_>
    <_>
      4.16666679e-02 1.04166672e-01 4.16666679e-02 6.25000000e-02
      2.50000000e-01 6.25000000e-02 6.25000000e-02 8.33333358e-02
      4.16666679e-02 1.45833343e-01 8.33333358e-02 2.08333340e-02</_>
    <_>
      1.14285715e-01 8.57142881e-02 5.71428575e-02 1.14285715e-01
      8.57142881e-02 1.71428576e-01 0. 2.85714287e-02 8.57142881e-02
      1.71428576e-01 5.71428575e-02 2.85714287e-02</_>
    <_>
      5.40540554e-02 2.70270277e-02 0. 5.40540554e-02 1.89189196e-01
      1.89189196e-01 5.40540554e-02 1.08108111e-01 8.10810849e-02
      1.62162170e-01 0. 8.10810849e-02</_>
    <_>
      5.08474559e-02 1.35593221e-01 5.08474559e-02 8.47457647e-02
      6.77966103e-02 1.52542368e-01 8.47457647e-02 5.08474559e-02
      1.18644066e-01 1.69491526e-02 1.18644066e-01 6.77966103e-02</_>
    <_>
      2.07547173e-01 9.43396240e-02 7.54716992e-02 5.66037744e-02
      7.54716992e-02 1.88679248e-02 1.88679248e-02 7.54716992e-02
      1.13207549e-01 1.32075474e-01 7.54716992e-02 5.66037744e-02</_>
    <_>
      1.66666672e-01 5.55555560e-02 2.77777780e-02 8.33333358e-02
      2.77777780e-02 1.11111112e-01 0. 8.33333358e-02 1.38888896e-01
      1.66666672e-01 8.33333358e-02 5.55555560e-02</_>
    <_>
      1.84210524e-01 1.57894731e-01 7.89473653e-02 0. 2.63157897e-02
      2.63157897e-02 5.26315793e-02 5.26315793e-02 1.31578952e-01
      1.31578952e-01 1.31578952e-01 2.63157897e-02</_>
    <_>
      6.66666701e-02 8.33333358e-02 3.33333351e-02 8.33333358e-02
      1.50000006e-01 1.00000009e-01 5.00000045e-02 3.33333351e-02
      8.33333358e-02 2.00000018e-01 3.33333351e-02 8.33333358e-02</_>
    <_>
      9.58904102e-02 1.09589040e-01 6.84931502e-02 5.47945201e-02
      4.10958901e-02 4.10958901e-02 8.21917802e-02 2.73972601e-02
      1.91780820e-01 1.09589040e-01 1.50684923e-01 2.73972601e-02</_>
    <_>
      7.99999982e-02 3.99999991e-02 1.19999997e-01 3.99999991e-02
      1.99999988e-01 7.99999982e-02 1.19999997e-01 7.99999982e-02
      7.99999982e-02 3.99999991e-02 7.99999982e-02 3.99999991e-02</_></support_vectors>
  <decision_functions>
    <_>
      <sv_count>463</sv_count>
      <rho>-1.5040299695575172e+01</rho>
      <alpha>
        35. 35. 35. 35. 35. 35. 35. 35. 35. 35. 35. 35. 35. 35. 35. 35.
        35. 35. 35. 35. 35. 35. 35. 35. 3.0739361431979919e+01 35.
        1.4020740868004651e+01 35. 35. 1.2121113697811396e+01 35. 35.
        35. 35. 35. 1.5546235762086216e+00 35. 35. 35.
        2.5048289193916432e+01 35. 35. 35. 35. 35. 35. 35. 35. 35. 35.
        35. 35. 35. 1.1419372191728332e+01 3.3379941624510401e+01 35.
        35. 35. 35. 35. 35. 35. 35. 35. 2.4607049794070250e+01 35. 35.
        35. 35. 35. 35. 35. 35. 35. 35. 35. 35. 35. 35. 35. 35. 35. 35.
        35. 35. 2.4458076287086765e+01 35. 35. 35. 35. 35. 35. 35. 35.
        35. 35. 35. 35. 35. 35. 35. 35. 35. 35. 35. 35. 35. 35. 35.
        3.1297399454887803e+01 35. 35. 35. 35. 35. 35. 35. 35. 35. 35.
        35. 35. 35. 35. 35. 35. 35. 35. 35. 2.8663769235078696e+01
        1.9457746460311533e+01 35. 35. 35. 35. 35. 35. 35. 35. 35. 35.
        35. 35. 35. 2.5128615376524454e+01 35. 35. 35. 35. 35. 35. 35.
        35. 35. 35. 35. 1.1526596011075348e+01 35.
        1.0947235754421733e+01 35. 35. 35. 35. 35. 35.
        1.7032255488302738e+01 35. 35. 35. 35. 35. 35. 35. 35. 35.
        3.1482221141705971e+01 35. 35. 35. 35. 35. 35. 35.
        3.1459812502982061e+01 35. 35. 35. 35. 2.3865400903673809e+01
        35. 35. 35. 35. 35. 35. 35. 35. 35. 35. 35. 35. 35. 35.
        5.6361599897302286e+00 35. 35. 1.6178232909930465e+01 35.
        3.5534323332826796e+00 35. 35. 35. 35. 35. 35. 35. 35.
        1.9923996218460884e+00 35. 35. 35. 35. 35. 35. 35. 35. 35. 35.
        35. 35. -35. -35. -35. -2.3011931359808372e+01 -35. -35.
        -2.5340957936352197e+01 -4.7597443343457453e+00 -35. -35.
        -6.8522953761995646e+00 -35. -35. -35. -35. -35. -35. -35. -35.
        -35. -35. -35. -35. -35. -35. -1.6603532713256570e+01 -35. -35.
        -35. -35. -2.6136515565933607e+01 -35. -35. -35. -35. -35. -35.
        -35. -35. -35. -35. -35. -35. -35. -35. -35.
        -7.4185604987467455e+00 -35. -1.6323205200289472e+01 -35. -35.
        -35. -35. -35. -6.5693415775499728e+00 -35. -35. -35. -35. -35.
        -35. -35. -35. -35. -35. -35. -35. -35. -35. -35. -35. -35. -35.
        -35. -3.4120294403864307e+01 -35. -35. -35. -35. -35. -35. -35.
        -35. -35. -35. -35. -35. -35. -35. -35. -35. -35. -35. -35. -35.
        -35. -35. -7.0634269284441107e+00 -2.6868231907971548e+01 -35.
        -35. -35. -35. -35. -35. -35. -35. -35. -35. -35.
        -9.1596767895115105e-01 -35. -35. -35. -35. -35. -35. -35. -35.
        -35. -2.6332326392110243e+01 -35. -35. -35.
        -1.5584392441572749e+01 -35. -35. -35. -35. -35. -35. -35. -35.
        -35. -35. -35. -35. -35. -35. -35. -35. -35.
        -2.6053298222053414e+01 -35. -1.0389196034482930e+01 -35. -35.
        -35. -35. -35. -35. -35. -35. -35. -35. -35. -35.
        -1.3174712189504284e+01 -35. -35. -35. -35. -35. -35. -35. -35.
        -35. -4.3426067725310942e+00 -35. -35. -35. -35. -35. -35.
        -2.7248837126988061e+01 -35. -35. -35. -2.8005254684964626e+01
        -1.6942495675204359e+01 -35. -35. -35. -2.6125821519626157e+01
        -35. -35. -35. -35. -35. -35. -35. -35. -35. -35. -35. -35. -35.
        -35. -35. -35. -35. -35. -35. -35. -35. -35. -35. -35. -35.
        -1.4227633883376528e+01 -35. -4.4541767160455219e+00
        -2.9101302101827756e+01 -35. -2.6603786607069299e+01 -35. -35.
        -35. -35. -35. -35. -35. -35. -35. -35. -35. -35. -35. -35. -35.
        -35. -35. -35.</alpha>
      <index>
        251 241 242 244 247 248 249 239 253 256 258 259 226 216 218 221
        223 225 261 227 229 230 232 234 236 237 289 281 283 286 287 280
        290 292 293 296 297 213 275 273 271 269 267 266 265 263 168 161
        162 164 166 159 169 173 175 177 155 152 150 149 196 197 198 199
        201 202 204 194 207 208 211 193 191 188 186 184 181 411 413 414
        416 408 420 421 423 396 387 389 391 394 425 399 400 403 405 455
        448 451 453 456 457 459 461 462 385 445 443 441 439 437 435 433
        430 428 330 318 321 323 324 325 326 328 316 332 334 336 339 342
        313 311 309 308 305 303 301 300 298 372 361 363 366 369 370 360
        374 376 379 381 383 214 357 356 354 352 351 349 347 346 77 73 69
        67 65 63 61 59 58 56 54 52 100 113 112 111 108 106 105 104 103
        102 98 97 96 94 92 91 90 88 86 84 83 82 15 30 28 27 25 23 16 31
        14 13 10 9 7 5 3 1 43 48 47 42 41 39 37 36 34 32 134 138 131 146
        137 124 118 126 115 120 143 122 382 380 378 377 40 375 373 160
        371 392 33 398 397 395 393 139 35 390 388 386 38 365 384 345 167
        353 350 348 344 49 343 50 341 133 340 338 136 368 367 44 364 45
        362 163 46 359 135 358 165 355 145 447 446 11 444 442 12 440 438
        151 436 434 147 460 148 458 2 17 4 454 452 6 450 8 449 24 156 26
        415 141 412 157 410 417 409 29 407 406 170 404 140 402 401 432
        144 431 18 429 153 427 19 426 424 20 158 422 21 142 22 419 154
        418 190 254 252 250 189 93 95 246 245 243 121 240 192 238 99 235
        123 272 183 270 81 268 264 101 262 85 260 185 87 89 257 187 255
        116 215 0 110 212 210 209 206 114 205 203 200 233 231 119 228 80
        224 222 195 220 107 219 117 217 109 64 60 315 174 314 62 312 310
        176 307 306 130 66 178 304 68 302 299 335 51 333 331 53 329 132
        327 55 179 171 322 57 320 172 319 317 182 285 284 282 127 279 75
        278 76 277 78 276 79 274 125 70 129 71 295 294 337 180 291 72
        128 288 74</index></_></decision_functions></opencv_ml_svm>
</opencv_storage>
